{"learner":{"attributes":{"scikit_learn":"{\"_estimator_type\": \"classifier\"}"},"feature_names":[],"feature_types":[],"gradient_booster":{"model":{"cats":{"enc":[],"feature_segments":[],"sorted_idx":[]},"gbtree_model_param":{"num_parallel_tree":"1","num_trees":"800"},"iteration_indptr":[0,4,8,12,16,20,24,28,32,36,40,44,48,52,56,60,64,68,72,76,80,84,88,92,96,100,104,108,112,116,120,124,128,132,136,140,144,148,152,156,160,164,168,172,176,180,184,188,192,196,200,204,208,212,216,220,224,228,232,236,240,244,248,252,256,260,264,268,272,276,280,284,288,292,296,300,304,308,312,316,320,324,328,332,336,340,344,348,352,356,360,364,368,372,376,380,384,388,392,396,400,404,408,412,416,420,424,428,432,436,440,444,448,452,456,460,464,468,472,476,480,484,488,492,496,500,504,508,512,516,520,524,528,532,536,540,544,548,552,556,560,564,568,572,576,580,584,588,592,596,600,604,608,612,616,620,624,628,632,636,640,644,648,652,656,660,664,668,672,676,680,684,688,692,696,700,704,708,712,716,720,724,728,732,736,740,744,748,752,756,760,764,768,772,776,780,784,788,792,796,800],"tree_info":[0,1,2,3,0,1,2,3,0,1,2,3,0,1,2,3,0,1,2,3,0,1,2,3,0,1,2,3,0,1,2,3,0,1,2,3,0,1,2,3,0,1,2,3,0,1,2,3,0,1,2,3,0,1,2,3,0,1,2,3,0,1,2,3,0,1,2,3,0,1,2,3,0,1,2,3,0,1,2,3,0,1,2,3,0,1,2,3,0,1,2,3,0,1,2,3,0,1,2,3,0,1,2,3,0,1,2,3,0,1,2,3,0,1,2,3,0,1,2,3,0,1,2,3,0,1,2,3,0,1,2,3,0,1,2,3,0,1,2,3,0,1,2,3,0,1,2,3,0,1,2,3,0,1,2,3,0,1,2,3,0,1,2,3,0,1,2,3,0,1,2,3,0,1,2,3,0,1,2,3,0,1,2,3,0,1,2,3,0,1,2,3,0,1,2,3,0,1,2,3,0,1,2,3,0,1,2,3,0,1,2,3,0,1,2,3,0,1,2,3,0,1,2,3,0,1,2,3,0,1,2,3,0,1,2,3,0,1,2,3,0,1,2,3,0,1,2,3,0,1,2,3,0,1,2,3,0,1,2,3,0,1,2,3,0,1,2,3,0,1,2,3,0,1,2,3,0,1,2,3,0,1,2,3,0,1,2,3,0,1,2,3,0,1,2,3,0,1,2,3,0,1,2,3,0,1,2,3,0,1,2,3,0,1,2,3,0,1,2,3,0,1,2,3,0,1,2,3,0,1,2,3,0,1,2,3,0,1,2,3,0,1,2,3,0,1,2,3,0,1,2,3,0,1,2,3,0,1,2,3,0,1,2,3,0,1,2,3,0,1,2,3,0,1,2,3,0,1,2,3,0,1,2,3,0,1,2,3,0,1,2,3,0,1,2,3,0,1,2,3,0,1,2,3,0,1,2,3,0,1,2,3,0,1,2,3,0,1,2,3,0,1,2,3,0,1,2,3,0,1,2,3,0,1,2,3,0,1,2,3,0,1,2,3,0,1,2,3,0,1,2,3,0,1,2,3,0,1,2,3,0,1,2,3,0,1,2,3,0,1,2,3,0,1,2,3,0,1,2,3,0,1,2,3,0,1,2,3,0,1,2,3,0,1,2,3,0,1,2,3,0,1,2,3,0,1,2,3,0,1,2,3,0,1,2,3,0,1,2,3,0,1,2,3,0,1,2,3,0,1,2,3,0,1,2,3,0,1,2,3,0,1,2,3,0,1,2,3,0,1,2,3,0,1,2,3,0,1,2,3,0,1,2,3,0,1,2,3,0,1,2,3,0,1,2,3,0,1,2,3,0,1,2,3,0,1,2,3,0,1,2,3,0,1,2,3,0,1,2,3,0,1,2,3,0,1,2,3,0,1,2,3,0,1,2,3,0,1,2,3,0,1,2,3,0,1,2,3,0,1,2,3,0,1,2,3,0,1,2,3,0,1,2,3,0,1,2,3,0,1,2,3,0,1,2,3,0,1,2,3,0,1,2,3,0,1,2,3,0,1,2,3,0,1,2,3,0,1,2,3,0,1,2,3,0,1,2,3,0,1,2,3,0,1,2,3,0,1,2,3,0,1,2,3,0,1,2,3,0,1,2,3,0,1,2,3,0,1,2,3,0,1,2,3,0,1,2,3,0,1,2,3,0,1,2,3,0,1,2,3,0,1,2,3,0,1,2,3,0,1,2,3,0,1,2,3,0,1,2,3,0,1,2,3,0,1,2,3,0,1,2,3,0,1,2,3,0,1,2,3,0,1,2,3,0,1,2,3,0,1,2,3,0,1,2,3,0,1,2,3],"trees":[{"base_weights":[-4.033577E-3,-6.368633E-2,2.2997871E-1],"categories":[],"categories_nodes":[],"categories_segments":[],"categories_sizes":[],"default_left":[0,0,0],"id":0,"left_children":[1,-1,-1],"loss_changes":[1.2840621E3,0E0,0E0],"parents":[2147483647,0,0],"right_children":[2,-1,-1],"split_conditions":[2.8208584E-1,-6.368633E-2,2.2997871E-1],"split_indices":[395,0,0],"split_type":[0,0,0],"sum_hessian":[8.7885504E2,6.90069E2,1.8878606E2],"tree_param":{"num_deleted":"0","num_feature":"768","num_nodes":"3","size_leaf_vector":"1"}},{"base_weights":[-1.8617451E-3,-7.044719E-1,1.6839255E0,-7.05784E-2,-2.8782358E-2,-5.591326E-3,1.7028242E-1],"categories":[],"categories_nodes":[],"categories_segments":[],"categories_sizes":[],"default_left":[0,0,0,0,0,0,0],"id":1,"left_children":[1,3,5,-1,-1,-1,-1],"loss_changes":[1.2742782E3,1.126709E-1,1.0665649E1,0E0,0E0,0E0,0E0],"parents":[2147483647,0,0,1,1,2,2],"right_children":[2,4,6,-1,-1,-1,-1],"split_conditions":[4.3264812E-1,2.2507691E0,-1.9452602E-1,-7.05784E-2,-2.8782358E-2,-5.591326E-3,1.7028242E-1],"split_indices":[408,692,12,0,0,0,0],"split_type":[0,0,0,0,0,0,0],"sum_hessian":[1.0739197E3,7.5845056E2,3.154691E2,7.5513855E2,3.3120112E0,3.3120112E0,3.1215707E2],"tree_param":{"num_deleted":"0","num_feature":"768","num_nodes":"7","size_leaf_vector":"1"}},{"base_weights":[-4.2328625E-3,-6.588255E-1,1.9781909E0,-6.64301E-1,3.769229E-2,1.9905458E-1,7.247321E-2,-6.656747E-2,-2.2512037E-2],"categories":[],"categories_nodes":[],"categories_segments":[],"categories_sizes":[],"default_left":[0,0,0,0,0,0,0,0,0],"id":2,"left_children":[1,3,5,7,-1,-1,-1,-1,-1],"loss_changes":[1.2582345E3,4.4136047E0,2.0129395E0,1.9888306E-1,0E0,0E0,0E0,0E0,0E0],"parents":[2147483647,0,0,1,1,2,2,3,3],"right_children":[2,4,6,8,-1,-1,-1,-1,-1],"split_conditions":[3.8518733E-1,1.041735E0,-2.4073824E-1,8.692503E-1,3.769229E-2,1.9905458E-1,7.247321E-2,-6.656747E-2,-2.2512037E-2],"split_indices":[328,754,654,75,0,0,0,0,0],"split_type":[0,0,0,0,0,0,0,0,0],"sum_hessian":[9.677004E2,7.2802576E2,2.3967462E2,7.2465E2,3.375699E0,2.3667401E2,3.0006213E0,7.216494E2,3.0006213E0],"tree_param":{"num_deleted":"0","num_feature":"768","num_nodes":"9","size_leaf_vector":"1"}},{"base_weights":[7.7334843E-3,-6.563367E-1,2.0516071E0,-6.577443E-2,-2.4914347E-2,1.1143156E-1,2.0644633E-1],"categories":[],"categories_nodes":[],"categories_segments":[],"categories_sizes":[],"default_left":[0,0,0,0,0,0,0],"id":3,"left_children":[1,3,5,-1,-1,-1,-1],"loss_changes":[1.2732476E3,1.5118408E-1,1.5393066E-1,0E0,0E0,0E0,0E0],"parents":[2147483647,0,0,1,1,2,2],"right_children":[2,4,6,-1,-1,-1,-1],"split_conditions":[2.6536834E-1,9.376206E-1,-6.726732E-1,-6.577443E-2,-2.4914347E-2,1.1143156E-1,2.0644633E-1],"split_indices":[444,354,654,0,0,0,0],"split_type":[0,0,0,0,0,0,0],"sum_hessian":[9.359956E2,7.069365E2,2.2905913E2,7.036433E2,3.2931824E0,4.39091E0,2.2466823E2],"tree_param":{"num_deleted":"0","num_feature":"768","num_nodes":"7","size_leaf_vector":"1"}},{"base_weights":[6.3455184E-3,-6.250491E-2,1.8372184E-1],"categories":[],"categories_nodes":[],"categories_segments":[],"categories_sizes":[],"default_left":[0,0,0],"id":4,"left_children":[1,-1,-1],"loss_changes":[1.00518555E3,0E0,0E0],"parents":[2147483647,0,0],"right_children":[2,-1,-1],"split_conditions":[6.435601E-1,-6.250491E-2,1.8372184E-1],"split_indices":[263,0,0],"split_type":[0,0,0],"sum_hessian":[8.67437E2,6.4545087E2,2.2198613E2],"tree_param":{"num_deleted":"0","num_feature":"768","num_nodes":"3","size_leaf_vector":"1"}},{"base_weights":[1.1607691E-2,-6.7706996E-1,1.4512883E-1,-6.8375325E-1,4.427837E-2,-6.8512455E-2,-2.6102403E-2],"categories":[],"categories_nodes":[],"categories_segments":[],"categories_sizes":[],"default_left":[0,0,0,0,0,0,0],"id":5,"left_children":[1,3,-1,5,-1,-1,-1],"loss_changes":[1.061529E3,5.74646E0,0E0,1.44104E-1,0E0,0E0,0E0],"parents":[2147483647,0,0,1,1,3,3],"right_children":[2,4,-1,6,-1,-1,-1],"split_conditions":[3.9610118E-1,6.733632E-1,1.4512883E-1,2.623464E-1,4.427837E-2,-6.8512455E-2,-2.6102403E-2],"split_indices":[403,564,0,18,0,0,0],"split_type":[0,0,0,0,0,0,0],"sum_hessian":[1.0685863E3,7.231328E2,3.4545355E2,7.193186E2,3.814158E0,7.1613824E2,3.1803827E0],"tree_param":{"num_deleted":"0","num_feature":"768","num_nodes":"7","size_leaf_vector":"1"}},{"base_weights":[6.344773E-3,-6.390773E-1,1.642171E-1,-6.4610255E-1,5.5309452E-2,-6.504046E-2,2.6363597E-4],"categories":[],"categories_nodes":[],"categories_segments":[],"categories_sizes":[],"default_left":[0,0,0,0,0,0,0],"id":6,"left_children":[1,3,-1,5,-1,-1,-1],"loss_changes":[1.0195746E3,6.165436E0,0E0,1.9890747E0,0E0,0E0,0E0],"parents":[2147483647,0,0,1,1,3,3],"right_children":[2,4,-1,6,-1,-1,-1],"split_conditions":[5.725862E-1,5.424623E-1,1.642171E-1,-1.412338E-2,5.5309452E-2,-6.504046E-2,2.6363597E-4],"split_indices":[278,332,0,69,0,0,0],"split_type":[0,0,0,0,0,0,0],"sum_hessian":[9.636017E2,6.913678E2,2.722339E2,6.878563E2,3.511492E0,6.8347546E2,4.380832E0],"tree_param":{"num_deleted":"0","num_feature":"768","num_nodes":"7","size_leaf_vector":"1"}},{"base_weights":[-1.3112529E-2,-6.434038E-2,1.686487E-1],"categories":[],"categories_nodes":[],"categories_segments":[],"categories_sizes":[],"default_left":[0,0,0],"id":7,"left_children":[1,-1,-1],"loss_changes":[1.00150836E3,0E0,0E0],"parents":[2147483647,0,0],"right_children":[2,-1,-1],"split_conditions":[7.1620965E-1,-6.434038E-2,1.686487E-1],"split_indices":[387,0,0],"split_type":[0,0,0],"sum_hessian":[9.329877E2,6.8108844E2,2.5189929E2],"tree_param":{"num_deleted":"0","num_feature":"768","num_nodes":"3","size_leaf_vector":"1"}},{"base_weights":[-3.7632186E-3,-6.1404653E-2,1.5419896E-1],"categories":[],"categories_nodes":[],"categories_segments":[],"categories_sizes":[],"default_left":[0,0,0],"id":8,"left_children":[1,-1,-1],"loss_changes":[8.033392E2,0E0,0E0],"parents":[2147483647,0,0],"right_children":[2,-1,-1],"split_conditions":[5.9663475E-1,-6.1404653E-2,1.5419896E-1],"split_indices":[416,0,0],"split_type":[0,0,0],"sum_hessian":[8.4967847E2,6.096487E2,2.4002979E2],"tree_param":{"num_deleted":"0","num_feature":"768","num_nodes":"3","size_leaf_vector":"1"}},{"base_weights":[-3.4448775E-3,-6.6383016E-1,1.2602514E0,-6.665965E-2,-7.155122E-3,-6.021771E-3,1.2726843E-1],"categories":[],"categories_nodes":[],"categories_segments":[],"categories_sizes":[],"default_left":[0,0,0,0,0,0,0],"id":9,"left_children":[1,3,5,-1,-1,-1,-1],"loss_changes":[8.8405975E2,1.0185547E0,6.166687E0,0E0,0E0,0E0,0E0],"parents":[2147483647,0,0,1,1,2,2],"right_children":[2,4,6,-1,-1,-1,-1],"split_conditions":[7.889956E-2,6.743634E-1,-3.0860066E-2,-6.665965E-2,-7.155122E-3,-6.021771E-3,1.2726843E-1],"split_indices":[301,83,63,0,0,0,0],"split_type":[0,0,0,0,0,0,0],"sum_hessian":[1.057424E3,6.9485754E2,3.6256644E2,6.9133435E2,3.5232296E0,3.2710474E0,3.592954E2],"tree_param":{"num_deleted":"0","num_feature":"768","num_nodes":"7","size_leaf_vector":"1"}},{"base_weights":[1.2264993E-3,-6.276336E-1,1.4086281E-1,-6.350393E-1,2.9776437E-2,-6.365406E-2,-2.2141412E-2],"categories":[],"categories_nodes":[],"categories_segments":[],"categories_sizes":[],"default_left":[0,0,0,0,0,0,0],"id":10,"left_children":[1,3,-1,5,-1,-1,-1],"loss_changes":[8.36394E2,4.6983643E0,0E0,1.7578125E-1,0E0,0E0,0E0],"parents":[2147483647,0,0,1,1,3,3],"right_children":[2,4,-1,6,-1,-1,-1],"split_conditions":[5.6726664E-1,8.399933E-1,1.4086281E-1,2.7726948E-1,2.9776437E-2,-6.365406E-2,-2.2141412E-2],"split_indices":[332,206,0,435,0,0,0],"split_type":[0,0,0,0,0,0,0],"sum_hessian":[9.429281E2,6.5205676E2,2.9087134E2,6.4729846E2,4.75835E0,6.441798E2,3.118652E0],"tree_param":{"num_deleted":"0","num_feature":"768","num_nodes":"7","size_leaf_vector":"1"}},{"base_weights":[1.1933547E-2,-6.272688E-1,1.4354447E0,-6.302588E-2,-0E0,1.4442857E-1,4.2087264E-2],"categories":[],"categories_nodes":[],"categories_segments":[],"categories_sizes":[],"default_left":[0,0,0,0,0,0,0],"id":11,"left_children":[1,3,5,-1,-1,-1,-1],"loss_changes":[8.5028E2,1.1711273E0,1.8031616E0,0E0,0E0,0E0,0E0],"parents":[2147483647,0,0,1,1,2,2],"right_children":[2,4,6,-1,-1,-1,-1],"split_conditions":[2.6536834E-1,7.9422104E-1,-9.931356E-2,-6.302588E-2,-0E0,1.4442857E-1,4.2087264E-2],"split_indices":[444,341,632,0,0,0,0],"split_type":[0,0,0,0,0,0,0],"sum_hessian":[9.323859E2,6.437918E2,2.8859415E2,6.406369E2,3.154881E0,2.855835E2,3.0106661E0],"tree_param":{"num_deleted":"0","num_feature":"768","num_nodes":"7","size_leaf_vector":"1"}},{"base_weights":[-2.0197826E-3,-6.0388442E-2,1.3363692E-1],"categories":[],"categories_nodes":[],"categories_segments":[],"categories_sizes":[],"default_left":[0,0,0],"id":12,"left_children":[1,-1,-1],"loss_changes":[6.743308E2,0E0,0E0],"parents":[2147483647,0,0],"right_children":[2,-1,-1],"split_conditions":[1.7680031E-1,-6.0388442E-2,1.3363692E-1],"split_indices":[434,0,0],"split_type":[0,0,0],"sum_hessian":[8.352171E2,5.765638E2,2.5865338E2],"tree_param":{"num_deleted":"0","num_feature":"768","num_nodes":"3","size_leaf_vector":"1"}},{"base_weights":[-2.115387E-2,-6.472092E-1,1.1329842E0,-6.500744E-2,-1.0245852E-2,3.3626087E-2,1.1387831E-1],"categories":[],"categories_nodes":[],"categories_segments":[],"categories_sizes":[],"default_left":[0,0,0,0,0,0,0],"id":13,"left_children":[1,3,5,-1,-1,-1,-1],"loss_changes":[7.336202E2,8.8565063E-1,1.1191101E0,0E0,0E0,0E0,0E0],"parents":[2147483647,0,0,1,1,2,2],"right_children":[2,4,6,-1,-1,-1,-1],"split_conditions":[7.889956E-2,-9.793228E-2,-5.715934E-1,-6.500744E-2,-1.0245852E-2,3.3626087E-2,1.1387831E-1],"split_indices":[301,301,255,0,0,0,0],"split_type":[0,0,0,0,0,0,0],"sum_hessian":[1.0133674E3,6.5732904E2,3.5603836E2,6.5351483E2,3.8141973E0,3.1235113E0,3.5291486E2],"tree_param":{"num_deleted":"0","num_feature":"768","num_nodes":"7","size_leaf_vector":"1"}},{"base_weights":[-2.241915E-3,-6.14571E-1,1.2358894E0,-6.206637E-1,4.543755E-2,1.24269806E-1,3.887739E-2,-6.2377173E-2,-2.9144517E-1,-0E0,-4.848033E-2],"categories":[],"categories_nodes":[],"categories_segments":[],"categories_sizes":[],"default_left":[0,0,0,0,0,0,0,0,0,0,0],"id":14,"left_children":[1,3,5,7,-1,-1,-1,-1,9,-1,-1],"loss_changes":[7.047935E2,4.3503876E0,1.1277771E0,3.6016846E-1,0E0,0E0,0E0,0E0,4.9051726E-1,0E0,0E0],"parents":[2147483647,0,0,1,1,2,2,3,3,8,8],"right_children":[2,4,6,8,-1,-1,-1,-1,10,-1,-1],"split_conditions":[5.725862E-1,1.1103572E0,6.317574E-1,-1.5263757E-1,4.543755E-2,1.24269806E-1,3.887739E-2,-6.2377173E-2,-5.518684E-1,-0E0,-4.848033E-2],"split_indices":[278,577,680,69,0,0,0,0,655,0,0],"split_type":[0,0,0,0,0,0,0,0,0,0,0],"sum_hessian":[9.277105E2,6.211163E2,3.0659427E2,6.181061E2,3.010147E0,3.0356934E2,3.024942E0,6.111382E2,6.9679027E0,3.0013356E0,3.966567E0],"tree_param":{"num_deleted":"0","num_feature":"768","num_nodes":"11","size_leaf_vector":"1"}},{"base_weights":[9.947918E-3,-6.1826047E-2,1.256229E0,7.853321E-3,1.2690763E-1],"categories":[],"categories_nodes":[],"categories_segments":[],"categories_sizes":[],"default_left":[0,0,0,0,0],"id":15,"left_children":[1,-1,3,-1,-1],"loss_changes":[7.0535065E2,0E0,4.334137E0,0E0,0E0],"parents":[2147483647,0,0,2,2],"right_children":[2,-1,4,-1,-1],"split_conditions":[4.1388005E-1,-6.1826047E-2,-6.8258387E-1,7.853321E-3,1.2690763E-1],"split_indices":[432,0,624,0,0],"split_type":[0,0,0,0,0],"sum_hessian":[8.9884467E2,5.978914E2,3.0095325E2,3.408361E0,2.975449E2],"tree_param":{"num_deleted":"0","num_feature":"768","num_nodes":"5","size_leaf_vector":"1"}},{"base_weights":[3.345776E-3,-5.9455723E-2,1.1854013E-1],"categories":[],"categories_nodes":[],"categories_segments":[],"categories_sizes":[],"default_left":[0,0,0],"id":16,"left_children":[1,-1,-1],"loss_changes":[5.747022E2,0E0,0E0],"parents":[2147483647,0,0],"right_children":[2,-1,-1],"split_conditions":[1.3242483E-2,-5.9455723E-2,1.1854013E-1],"split_indices":[282,0,0],"split_type":[0,0,0],"sum_hessian":[8.11076E2,5.3890265E2,2.7217337E2],"tree_param":{"num_deleted":"0","num_feature":"768","num_nodes":"3","size_leaf_vector":"1"}},{"base_weights":[-1.1759585E-3,-6.351978E-2,1.02523E0,-2.711231E-2,1.0369617E-1],"categories":[],"categories_nodes":[],"categories_segments":[],"categories_sizes":[],"default_left":[0,0,0,0,0],"id":17,"left_children":[1,-1,3,-1,-1],"loss_changes":[6.4252563E2,0E0,6.0907593E0,0E0,0E0],"parents":[2147483647,0,0,2,2],"right_children":[2,-1,4,-1,-1],"split_conditions":[4.3264812E-1,-6.351978E-2,-3.014252E-1,-2.711231E-2,1.0369617E-1],"split_indices":[408,0,74,0,0],"split_type":[0,0,0,0,0],"sum_hessian":[9.853999E2,6.094282E2,3.7597168E2,3.0971515E0,3.7287454E2],"tree_param":{"num_deleted":"0","num_feature":"768","num_nodes":"5","size_leaf_vector":"1"}},{"base_weights":[-9.24168E-3,-6.058217E-1,1.1051605E0,-6.1214477E-2,4.1709624E-2,-4.220828E-3,1.117743E-1],"categories":[],"categories_nodes":[],"categories_segments":[],"categories_sizes":[],"default_left":[0,0,0,0,0,0,0],"id":18,"left_children":[1,3,5,-1,-1,-1,-1],"loss_changes":[5.9498334E2,4.0455627E0,4.6592712E0,0E0,0E0,0E0,0E0],"parents":[2147483647,0,0,1,1,2,2],"right_children":[2,4,6,-1,-1,-1,-1],"split_conditions":[4.2863226E-1,3.3547556E-1,-2.2983739E-1,-6.1214477E-2,4.1709624E-2,-4.220828E-3,1.117743E-1],"split_indices":[332,69,468,0,0,0,0],"split_type":[0,0,0,0,0,0,0],"sum_hessian":[8.930084E2,5.819927E2,3.1101578E2,5.789135E2,3.0791514E0,3.2619965E0,3.0775378E2],"tree_param":{"num_deleted":"0","num_feature":"768","num_nodes":"7","size_leaf_vector":"1"}},{"base_weights":[2.360314E-3,-6.072813E-2,1.1253599E0,1.1355137E-1,1.0885446E-2],"categories":[],"categories_nodes":[],"categories_segments":[],"categories_sizes":[],"default_left":[0,0,0,0,0],"id":19,"left_children":[1,-1,3,-1,-1],"loss_changes":[6.032578E2,0E0,2.952301E0,0E0,0E0],"parents":[2147483647,0,0,2,2],"right_children":[2,-1,4,-1,-1],"split_conditions":[6.288726E-1,-6.072813E-2,-4.4165266E-1,1.1355137E-1,1.0885446E-2],"split_indices":[292,0,718,0,0],"split_type":[0,0,0,0,0],"sum_hessian":[8.790739E2,5.7000574E2,3.090682E2,3.0579816E2,3.2700572E0],"tree_param":{"num_deleted":"0","num_feature":"768","num_nodes":"5","size_leaf_vector":"1"}},{"base_weights":[8.6131156E-4,-5.842169E-1,1.0742974E-1,-5.858953E-2,-2.0253064E-2],"categories":[],"categories_nodes":[],"categories_segments":[],"categories_sizes":[],"default_left":[0,0,0,0,0],"id":20,"left_children":[1,3,-1,-1,-1],"loss_changes":[5.0109158E2,1.3323975E-1,0E0,0E0,0E0],"parents":[2147483647,0,0,1,1],"right_children":[2,4,-1,-1,-1],"split_conditions":[1.8706703E-1,9.03208E-1,1.0742974E-1,-5.858953E-2,-2.0253064E-2],"split_indices":[282,678,0,0,0],"split_type":[0,0,0,0,0],"sum_hessian":[7.957831E2,5.152874E2,2.804957E2,5.12238E2,3.0494246E0],"tree_param":{"num_deleted":"0","num_feature":"768","num_nodes":"5","size_leaf_vector":"1"}},{"base_weights":[1.3705426E-2,-6.17335E-1,9.538964E-2,-6.218174E-2,2.4361785E-3],"categories":[],"categories_nodes":[],"categories_segments":[],"categories_sizes":[],"default_left":[0,0,0,0,0],"id":21,"left_children":[1,3,-1,-1,-1],"loss_changes":[5.650395E2,1.7138062E0,0E0,0E0,0E0],"parents":[2147483647,0,0,1,1],"right_children":[2,4,-1,-1,-1],"split_conditions":[3.5320038E-1,8.776844E-3,9.538964E-2,-6.218174E-2,2.4361785E-3],"split_indices":[403,403,0,0,0],"split_type":[0,0,0,0,0],"sum_hessian":[9.5032025E2,5.6879297E2,3.8152728E2,5.650329E2,3.7600582E0],"tree_param":{"num_deleted":"0","num_feature":"768","num_nodes":"5","size_leaf_vector":"1"}},{"base_weights":[1.8767785E-2,-5.882474E-1,1.0140132E0,-5.967813E-1,5.896495E-2,1.01919614E-1,3.1966325E-2,-6.0146805E-2,-1.1506247E-2],"categories":[],"categories_nodes":[],"categories_segments":[],"categories_sizes":[],"default_left":[0,0,0,0,0,0,0,0,0],"id":22,"left_children":[1,3,5,7,-1,-1,-1,-1,-1],"loss_changes":[5.258802E2,5.78685E0,7.272339E-1,1.0722046E0,0E0,0E0,0E0,0E0,0E0],"parents":[2147483647,0,0,1,1,2,2,3,3],"right_children":[2,4,6,8,-1,-1,-1,-1,-1],"split_conditions":[5.725862E-1,6.970532E-1,-1.438945E-1,2.9510862E-1,5.896495E-2,1.01919614E-1,3.1966325E-2,-6.0146805E-2,-1.1506247E-2],"split_indices":[278,64,652,278,0,0,0,0,0],"split_type":[0,0,0,0,0,0,0,0,0],"sum_hessian":[8.6841864E2,5.3961053E2,3.2880814E2,5.363032E2,3.307283E0,3.257646E2,3.043543E0,5.306839E2,5.6193366E0],"tree_param":{"num_deleted":"0","num_feature":"768","num_nodes":"9","size_leaf_vector":"1"}},{"base_weights":[1.359535E-2,-5.9710115E-2,1.0295172E0,1.0346883E-1,4.0113807E-2],"categories":[],"categories_nodes":[],"categories_segments":[],"categories_sizes":[],"default_left":[0,0,0,0,0],"id":23,"left_children":[1,-1,3,-1,-1],"loss_changes":[5.3099713E2,0E0,4.8562622E-1,0E0,0E0],"parents":[2147483647,0,0,2,2],"right_children":[2,-1,4,-1,-1],"split_conditions":[4.1388005E-1,-5.9710115E-2,6.970532E-1,1.0346883E-1,4.0113807E-2],"split_indices":[432,0,64,0,0],"split_type":[0,0,0,0,0],"sum_hessian":[8.538069E2,5.334502E2,3.203567E2,3.1694275E2,3.4139485E0],"tree_param":{"num_deleted":"0","num_feature":"768","num_nodes":"5","size_leaf_vector":"1"}},{"base_weights":[8.324178E-3,-5.7796717E-2,9.846954E-2],"categories":[],"categories_nodes":[],"categories_segments":[],"categories_sizes":[],"default_left":[0,0,0],"id":24,"left_children":[1,-1,-1],"loss_changes":[4.32787E2,0E0,0E0],"parents":[2147483647,0,0],"right_children":[2,-1,-1],"split_conditions":[1.3242483E-2,-5.7796717E-2,9.846954E-2],"split_indices":[282,0,0],"split_type":[0,0,0],"sum_hessian":[7.539765E2,4.7128494E2,2.8269153E2],"tree_param":{"num_deleted":"0","num_feature":"768","num_nodes":"3","size_leaf_vector":"1"}},{"base_weights":[2.949884E-3,-6.097394E-2,8.8335496E-1,8.916425E-2,-8.167022E-3],"categories":[],"categories_nodes":[],"categories_segments":[],"categories_sizes":[],"default_left":[0,0,0,0,0],"id":25,"left_children":[1,-1,3,-1,-1],"loss_changes":[4.967157E2,0E0,3.1762085E0,0E0,0E0],"parents":[2147483647,0,0,2,2],"right_children":[2,-1,4,-1,-1],"split_conditions":[3.5047126E-1,-6.097394E-2,1.0748285E-1,8.916425E-2,-8.167022E-3],"split_indices":[408,0,389,0,0],"split_type":[0,0,0,0,0],"sum_hessian":[9.187926E2,5.418816E2,3.76911E2,3.7387985E2,3.031166E0],"tree_param":{"num_deleted":"0","num_feature":"768","num_nodes":"5","size_leaf_vector":"1"}},{"base_weights":[1.3448862E-2,-5.847765E-1,9.3080026E-1,-5.919219E-2,3.348648E-2,-6.2426985E-3,9.4097085E-2],"categories":[],"categories_nodes":[],"categories_segments":[],"categories_sizes":[],"default_left":[0,0,0,0,0,0,0],"id":26,"left_children":[1,3,5,-1,-1,-1,-1],"loss_changes":[4.6121353E2,3.5660858E0,3.4979858E0,0E0,0E0,0E0,0E0],"parents":[2147483647,0,0,1,1,2,2],"right_children":[2,4,6,-1,-1,-1,-1],"split_conditions":[4.2863226E-1,5.70775E-1,-4.8055238E-1,-5.919219E-2,3.348648E-2,-6.2426985E-3,9.4097085E-2],"split_indices":[332,211,207,0,0,0,0],"split_type":[0,0,0,0,0,0,0],"sum_hessian":[8.38375E2,5.0760675E2,3.3076822E2,5.041547E2,3.4520693E0,3.200957E0,3.2756726E2],"tree_param":{"num_deleted":"0","num_feature":"768","num_nodes":"7","size_leaf_vector":"1"}},{"base_weights":[-1.9624399E-3,-5.863349E-1,9.4790846E-1,-5.8806457E-2,-1.9738024E-2,3.627424E-2,9.5289536E-2],"categories":[],"categories_nodes":[],"categories_segments":[],"categories_sizes":[],"default_left":[0,0,0,0,0,0,0],"id":27,"left_children":[1,3,5,-1,-1,-1,-1],"loss_changes":[4.5575778E2,1.4743042E-1,4.3527222E-1,0E0,0E0,0E0,0E0],"parents":[2147483647,0,0,1,1,2,2],"right_children":[2,4,6,-1,-1,-1,-1],"split_conditions":[2.6536834E-1,1.2149488E0,-5.518684E-1,-5.8806457E-2,-1.9738024E-2,3.627424E-2,9.5289536E-2],"split_indices":[444,584,655,0,0,0,0],"split_type":[0,0,0,0,0,0,0],"sum_hessian":[8.191332E2,5.074386E2,3.1169458E2,5.0442642E2,3.0121498E0,3.4264255E0,3.0826813E2],"tree_param":{"num_deleted":"0","num_feature":"768","num_nodes":"7","size_leaf_vector":"1"}},{"base_weights":[-1.3529117E-2,-5.7064276E-2,9.128343E-2],"categories":[],"categories_nodes":[],"categories_segments":[],"categories_sizes":[],"default_left":[0,0,0],"id":28,"left_children":[1,-1,-1],"loss_changes":[3.6027188E2,0E0,0E0],"parents":[2147483647,0,0],"right_children":[2,-1,-1],"split_conditions":[2.8208584E-1,-5.7064276E-2,9.128343E-2],"split_indices":[395,0,0],"split_type":[0,0,0],"sum_hessian":[6.9613684E2,4.3501276E2,2.611241E2],"tree_param":{"num_deleted":"0","num_feature":"768","num_nodes":"3","size_leaf_vector":"1"}},{"base_weights":[2.5463982E-3,-5.9738398E-2,8.320003E-1,1.9958265E-2,8.367263E-2],"categories":[],"categories_nodes":[],"categories_segments":[],"categories_sizes":[],"default_left":[0,0,0,0,0],"id":29,"left_children":[1,-1,3,-1,-1],"loss_changes":[4.2890945E2,0E0,8.1077576E-1,0E0,0E0],"parents":[2147483647,0,0,2,2],"right_children":[2,-1,4,-1,-1],"split_conditions":[8.9395285E-2,-5.9738398E-2,-6.255696E-1,1.9958265E-2,8.367263E-2],"split_indices":[381,0,196,0,0],"split_type":[0,0,0,0,0],"sum_hessian":[8.598851E2,4.9907297E2,3.6081207E2,3.1539137E0,3.5765817E2],"tree_param":{"num_deleted":"0","num_feature":"768","num_nodes":"5","size_leaf_vector":"1"}},{"base_weights":[-3.065774E-3,-5.773066E-1,8.648698E-1,-5.8298983E-2,3.6539205E-3,-2.8711943E-2,8.7827735E-2],"categories":[],"categories_nodes":[],"categories_segments":[],"categories_sizes":[],"default_left":[0,0,0,0,0,0,0],"id":30,"left_children":[1,3,5,-1,-1,-1,-1],"loss_changes":[3.9230933E2,1.7289124E0,5.151413E0,0E0,0E0,0E0,0E0],"parents":[2147483647,0,0,1,1,2,2],"right_children":[2,4,6,-1,-1,-1,-1],"split_conditions":[1.847173E-1,-1.412338E-2,-7.013548E-1,-5.8298983E-2,3.6539205E-3,-2.8711943E-2,8.7827735E-2],"split_indices":[328,69,291,0,0,0,0],"split_type":[0,0,0,0,0,0,0],"sum_hessian":[7.85187E2,4.7281482E2,3.1237222E2,4.686887E2,4.126113E0,3.2730794E0,3.0909915E2],"tree_param":{"num_deleted":"0","num_feature":"768","num_nodes":"7","size_leaf_vector":"1"}},{"base_weights":[-1.620569E-2,-5.7964195E-2,8.800811E-1,2.9705688E-3,8.887225E-2],"categories":[],"categories_nodes":[],"categories_segments":[],"categories_sizes":[],"default_left":[0,0,0,0,0],"id":31,"left_children":[1,-1,3,-1,-1],"loss_changes":[3.893611E2,0E0,2.06839E0,0E0,0E0],"parents":[2147483647,0,0,2,2],"right_children":[2,-1,4,-1,-1],"split_conditions":[3.8440728E-1,-5.7964195E-2,-9.7046316E-2,2.9705688E-3,8.887225E-2],"split_indices":[345,0,624,0,0],"split_type":[0,0,0,0,0],"sum_hessian":[7.6906067E2,4.7249756E2,2.965631E2,3.144369E0,2.9341876E2],"tree_param":{"num_deleted":"0","num_feature":"768","num_nodes":"5","size_leaf_vector":"1"}},{"base_weights":[1.2767152E-3,-5.6403268E-2,8.5656725E-2],"categories":[],"categories_nodes":[],"categories_segments":[],"categories_sizes":[],"default_left":[0,0,0],"id":32,"left_children":[1,-1,-1],"loss_changes":[3.3405984E2,0E0,0E0],"parents":[2147483647,0,0],"right_children":[2,-1,-1],"split_conditions":[9.159058E-2,-5.6403268E-2,8.5656725E-2],"split_indices":[434,0,0],"split_type":[0,0,0],"sum_hessian":[6.888549E2,4.1486862E2,2.739863E2],"tree_param":{"num_deleted":"0","num_feature":"768","num_nodes":"3","size_leaf_vector":"1"}},{"base_weights":[-0E0,-5.890287E-2,7.814595E-1,7.9289876E-2,-3.0461237E-2],"categories":[],"categories_nodes":[],"categories_segments":[],"categories_sizes":[],"default_left":[0,0,0,0,0],"id":33,"left_children":[1,-1,3,-1,-1],"loss_changes":[3.7983618E2,0E0,4.696335E0,0E0,0E0],"parents":[2147483647,0,0,2,2],"right_children":[2,-1,4,-1,-1],"split_conditions":[3.5047126E-1,-5.890287E-2,-3.0240205E-1,7.9289876E-2,-3.0461237E-2],"split_indices":[408,0,78,0,0],"split_type":[0,0,0,0,0],"sum_hessian":[8.232061E2,4.695667E2,3.536394E2,3.503117E2,3.3276985E0],"tree_param":{"num_deleted":"0","num_feature":"768","num_nodes":"5","size_leaf_vector":"1"}},{"base_weights":[-5.993209E-4,-5.636471E-1,8.2201517E-1,-5.7071286E-1,9.059242E-3,8.2659304E-2,2.9655948E-2,-5.7489064E-2,2.4805107E-4],"categories":[],"categories_nodes":[],"categories_segments":[],"categories_sizes":[],"default_left":[0,0,0,0,0,0,0,0,0],"id":34,"left_children":[1,3,5,7,-1,-1,-1,-1,-1],"loss_changes":[3.4717142E2,2.1572266E0,3.750763E-1,1.1138153E0,0E0,0E0,0E0,0E0,0E0],"parents":[2147483647,0,0,1,1,2,2,3,3],"right_children":[2,4,6,8,-1,-1,-1,-1,-1],"split_conditions":[5.725862E-1,4.2863226E-1,-1.767397E-2,-1.412338E-2,9.059242E-3,8.2659304E-2,2.9655948E-2,-5.7489064E-2,2.4805107E-4],"split_indices":[278,332,559,69,0,0,0,0,0],"split_type":[0,0,0,0,0,0,0,0,0],"sum_hessian":[7.4760846E2,4.440855E2,3.0352295E2,4.3961816E2,4.4673505E0,3.0014462E2,3.3783457E0,4.366074E2,3.01075E0],"tree_param":{"num_deleted":"0","num_feature":"768","num_nodes":"9","size_leaf_vector":"1"}},{"base_weights":[4.196413E-3,-5.7190865E-2,8.261064E-1,4.2098463E-3,8.356809E-2],"categories":[],"categories_nodes":[],"categories_segments":[],"categories_sizes":[],"default_left":[0,0,0,0,0],"id":35,"left_children":[1,-1,3,-1,-1],"loss_changes":[3.4774252E2,0E0,2.149109E0,0E0,0E0],"parents":[2147483647,0,0,2,2],"right_children":[2,-1,4,-1,-1],"split_conditions":[3.8440728E-1,-5.7190865E-2,-5.6791645E-1,4.2098463E-3,8.356809E-2],"split_indices":[345,0,177,0,0],"split_type":[0,0,0,0,0],"sum_hessian":[7.323471E2,4.3066302E2,3.0168405E2,3.8308733E0,2.9785318E2],"tree_param":{"num_deleted":"0","num_feature":"768","num_nodes":"5","size_leaf_vector":"1"}},{"base_weights":[-7.4207275E-3,-5.578981E-2,8.081993E-2],"categories":[],"categories_nodes":[],"categories_segments":[],"categories_sizes":[],"default_left":[0,0,0],"id":36,"left_children":[1,-1,-1],"loss_changes":[2.8680923E2,0E0,0E0],"parents":[2147483647,0,0],"right_children":[2,-1,-1],"split_conditions":[3.9036041E-1,-5.578981E-2,8.081993E-2],"split_indices":[434,0,0],"split_type":[0,0,0],"sum_hessian":[6.3685284E2,3.8049094E2,2.5636194E2],"tree_param":{"num_deleted":"0","num_feature":"768","num_nodes":"3","size_leaf_vector":"1"}},{"base_weights":[7.6814354E-3,-5.8013614E-2,7.506124E-1,7.561435E-2,1.0313257E-2],"categories":[],"categories_nodes":[],"categories_segments":[],"categories_sizes":[],"default_left":[0,0,0,0,0],"id":37,"left_children":[1,-1,3,-1,-1],"loss_changes":[3.4113635E2,0E0,1.0720062E0,0E0,0E0],"parents":[2147483647,0,0,2,2],"right_children":[2,-1,4,-1,-1],"split_conditions":[3.5047126E-1,-5.8013614E-2,-1.5313292E-1,7.561435E-2,1.0313257E-2],"split_indices":[408,0,751,0,0],"split_type":[0,0,0,0,0],"sum_hessian":[7.7911835E2,4.3501376E2,3.4410458E2,3.4087045E2,3.2341514E0],"tree_param":{"num_deleted":"0","num_feature":"768","num_nodes":"5","size_leaf_vector":"1"}},{"base_weights":[-1.0618089E-2,-5.540921E-1,7.810739E-2,-5.659574E-2,2.7732883E-2],"categories":[],"categories_nodes":[],"categories_segments":[],"categories_sizes":[],"default_left":[0,0,0,0,0],"id":38,"left_children":[1,3,-1,-1,-1],"loss_changes":[3.0630386E2,4.351013E0,0E0,0E0,0E0],"parents":[2147483647,0,0,1,1],"right_children":[2,4,-1,-1,-1],"split_conditions":[5.725862E-1,-1.412338E-2,7.810739E-2,-5.659574E-2,2.7732883E-2],"split_indices":[278,69,0,0,0],"split_type":[0,0,0,0,0],"sum_hessian":[7.0994446E2,4.2121725E2,2.8872723E2,4.1572397E2,5.49327E0],"tree_param":{"num_deleted":"0","num_feature":"768","num_nodes":"5","size_leaf_vector":"1"}},{"base_weights":[-4.9242647E-3,-5.6499925E-2,7.834738E-1,7.921411E-2,-0E0],"categories":[],"categories_nodes":[],"categories_segments":[],"categories_sizes":[],"default_left":[0,0,0,0,0],"id":39,"left_children":[1,-1,3,-1,-1],"loss_changes":[3.0823285E2,0E0,2.0133362E0,0E0,0E0],"parents":[2147483647,0,0,2,2],"right_children":[2,-1,4,-1,-1],"split_conditions":[4.1388005E-1,-5.6499925E-2,6.732811E-1,7.921411E-2,-0E0],"split_indices":[432,0,64,0,0],"split_type":[0,0,0,0,0],"sum_hessian":[6.96098E2,4.0722043E2,2.8887762E2,2.8577747E2,3.1001663E0],"tree_param":{"num_deleted":"0","num_feature":"768","num_nodes":"5","size_leaf_vector":"1"}},{"base_weights":[-2.8089685E-3,-5.523286E-2,7.678042E-2],"categories":[],"categories_nodes":[],"categories_segments":[],"categories_sizes":[],"default_left":[0,0,0],"id":40,"left_children":[1,-1,-1],"loss_changes":[2.5980194E2,0E0,0E0],"parents":[2147483647,0,0],"right_children":[2,-1,-1],"split_conditions":[9.159058E-2,-5.523286E-2,7.678042E-2],"split_indices":[434,0,0],"split_type":[0,0,0],"sum_hessian":[6.1156104E2,3.5723322E2,2.5432784E2],"tree_param":{"num_deleted":"0","num_feature":"768","num_nodes":"3","size_leaf_vector":"1"}},{"base_weights":[6.426605E-3,-5.722512E-2,7.162261E-1,-3.1381112E-3,7.243907E-2],"categories":[],"categories_nodes":[],"categories_segments":[],"categories_sizes":[],"default_left":[0,0,0,0,0],"id":41,"left_children":[1,-1,3,-1,-1],"loss_changes":[3.0059653E2,0E0,2.0986023E0,0E0,0E0],"parents":[2147483647,0,0,2,2],"right_children":[2,-1,4,-1,-1],"split_conditions":[3.5047126E-1,-5.722512E-2,-5.2825034E-1,-3.1381112E-3,7.243907E-2],"split_indices":[408,0,197,0,0],"split_type":[0,0,0,0,0],"sum_hessian":[7.2979926E2,4.020627E2,3.2773654E2,3.3774946E0,3.2435904E2],"tree_param":{"num_deleted":"0","num_feature":"768","num_nodes":"5","size_leaf_vector":"1"}},{"base_weights":[-0E0,-5.526552E-1,7.3616666E-1,-5.6130033E-2,3.53536E-2,7.483847E-2,-2.9472357E-2],"categories":[],"categories_nodes":[],"categories_segments":[],"categories_sizes":[],"default_left":[0,0,0,0,0,0,0],"id":42,"left_children":[1,3,5,-1,-1,-1,-1],"loss_changes":[2.7796722E2,3.276764E0,3.95578E0,0E0,0E0,0E0,0E0],"parents":[2147483647,0,0,1,1,2,2],"right_children":[2,4,6,-1,-1,-1,-1],"split_conditions":[4.2863226E-1,8.103497E-1,-8.527855E-1,-5.6130033E-2,3.53536E-2,7.483847E-2,-2.9472357E-2],"split_indices":[332,75,668,0,0,0,0],"split_type":[0,0,0,0,0,0,0],"sum_hessian":[6.81239E2,3.8928726E2,2.9195175E2,3.8609485E2,3.192412E0,2.888988E2,3.0529518E0],"tree_param":{"num_deleted":"0","num_feature":"768","num_nodes":"7","size_leaf_vector":"1"}},{"base_weights":[-1.5667889E-3,-5.5865694E-2,7.4707514E-1,7.2219344E-3,7.547595E-2],"categories":[],"categories_nodes":[],"categories_segments":[],"categories_sizes":[],"default_left":[0,0,0,0,0],"id":43,"left_children":[1,-1,3,-1,-1],"loss_changes":[2.7029828E2,0E0,1.2964478E0,0E0,0E0],"parents":[2147483647,0,0,2,2],"right_children":[2,-1,4,-1,-1],"split_conditions":[3.8440728E-1,-5.5865694E-2,-1.7186546E-1,7.2219344E-3,7.547595E-2],"split_indices":[345,0,624,0,0],"split_type":[0,0,0,0,0],"sum_hessian":[6.46147E2,3.7069064E2,2.754563E2,3.36481E0,2.720915E2],"tree_param":{"num_deleted":"0","num_feature":"768","num_nodes":"5","size_leaf_vector":"1"}},{"base_weights":[-2.8165386E-3,-5.472314E-2,7.326897E-2],"categories":[],"categories_nodes":[],"categories_segments":[],"categories_sizes":[],"default_left":[0,0,0],"id":44,"left_children":[1,-1,-1],"loss_changes":[2.321461E2,0E0,0E0],"parents":[2147483647,0,0],"right_children":[2,-1,-1],"split_conditions":[1.3242483E-2,-5.472314E-2,7.326897E-2],"split_indices":[282,0,0],"split_type":[0,0,0],"sum_hessian":[5.7780084E2,3.3225827E2,2.4554253E2],"tree_param":{"num_deleted":"0","num_feature":"768","num_nodes":"3","size_leaf_vector":"1"}},{"base_weights":[1.4626335E-3,-5.6503244E-2,6.896158E-1,-0E0,6.9683306E-2],"categories":[],"categories_nodes":[],"categories_segments":[],"categories_sizes":[],"default_left":[0,0,0,0,0],"id":45,"left_children":[1,-1,3,-1,-1],"loss_changes":[2.6557843E2,0E0,1.5554657E0,0E0,0E0],"parents":[2147483647,0,0,2,2],"right_children":[2,-1,4,-1,-1],"split_conditions":[3.7298203E-3,-5.6503244E-2,-1.15514755E-1,-0E0,6.9683306E-2],"split_indices":[301,0,469,0,0],"split_type":[0,0,0,0,0],"sum_hessian":[6.792265E2,3.7256256E2,3.066639E2,3.1367347E0,3.035272E2],"tree_param":{"num_deleted":"0","num_feature":"768","num_nodes":"5","size_leaf_vector":"1"}},{"base_weights":[-2.7902054E-3,-5.487559E-1,7.0806783E-1,-5.551482E-2,9.98011E-3,7.190223E-2,-1.5874544E-2],"categories":[],"categories_nodes":[],"categories_segments":[],"categories_sizes":[],"default_left":[0,0,0,0,0,0,0],"id":46,"left_children":[1,3,5,-1,-1,-1,-1],"loss_changes":[2.4539902E2,1.5840073E0,2.7777557E0,0E0,0E0,0E0,0E0],"parents":[2147483647,0,0,1,1,2,2],"right_children":[2,4,6,-1,-1,-1,-1],"split_conditions":[3.432399E-1,-1.412338E-2,-7.406271E-1,-5.551482E-2,9.98011E-3,7.190223E-2,-1.5874544E-2],"split_indices":[328,69,532,0,0,0,0],"split_type":[0,0,0,0,0,0,0],"sum_hessian":[6.303419E2,3.567292E2,2.736127E2,3.5354282E2,3.186382E0,2.7048035E2,3.1323576E0],"tree_param":{"num_deleted":"0","num_feature":"768","num_nodes":"7","size_leaf_vector":"1"}},{"base_weights":[6.6697462E-3,-5.5276096E-2,7.191706E-2],"categories":[],"categories_nodes":[],"categories_segments":[],"categories_sizes":[],"default_left":[0,0,0],"id":47,"left_children":[1,-1,-1],"loss_changes":[2.4511914E2,0E0,0E0],"parents":[2147483647,0,0],"right_children":[2,-1,-1],"split_conditions":[4.1388005E-1,-5.5276096E-2,7.191706E-2],"split_indices":[432,0,0],"split_type":[0,0,0],"sum_hessian":[6.1291907E2,3.4338727E2,2.695318E2],"tree_param":{"num_deleted":"0","num_feature":"768","num_nodes":"3","size_leaf_vector":"1"}},{"base_weights":[-9.750416E-3,-5.4249268E-2,7.058171E-2],"categories":[],"categories_nodes":[],"categories_segments":[],"categories_sizes":[],"default_left":[0,0,0],"id":48,"left_children":[1,-1,-1],"loss_changes":[2.0300267E2,0E0,0E0],"parents":[2147483647,0,0],"right_children":[2,-1,-1],"split_conditions":[6.435601E-1,-5.4249268E-2,7.058171E-2],"split_indices":[263,0,0],"split_type":[0,0,0],"sum_hessian":[5.305561E2,3.0434894E2,2.2620712E2],"tree_param":{"num_deleted":"0","num_feature":"768","num_nodes":"3","size_leaf_vector":"1"}},{"base_weights":[6.9661075E-3,-5.563709E-2,6.6588134E-1,-3.470565E-3,6.73586E-2],"categories":[],"categories_nodes":[],"categories_segments":[],"categories_sizes":[],"default_left":[0,0,0,0,0],"id":49,"left_children":[1,-1,3,-1,-1],"loss_changes":[2.3941049E2,0E0,1.6921997E0,0E0,0E0],"parents":[2147483647,0,0,2,2],"right_children":[2,-1,4,-1,-1],"split_conditions":[3.7298203E-3,-5.563709E-2,-1.0894412E-1,-3.470565E-3,6.73586E-2],"split_indices":[301,0,34,0,0],"split_type":[0,0,0,0,0],"sum_hessian":[6.4295105E2,3.466165E2,2.963346E2,3.0441468E0,2.9329044E2],"tree_param":{"num_deleted":"0","num_feature":"768","num_nodes":"5","size_leaf_vector":"1"}},{"base_weights":[-3.7475175E-3,-5.421597E-1,6.803321E-1,-5.4954864E-2,3.7774183E-3,-1.3844955E-2,6.924074E-2],"categories":[],"categories_nodes":[],"categories_segments":[],"categories_sizes":[],"default_left":[0,0,0,0,0,0,0],"id":50,"left_children":[1,3,5,-1,-1,-1,-1],"loss_changes":[2.1460893E2,1.4695358E0,2.6878586E0,0E0,0E0,0E0,0E0],"parents":[2147483647,0,0,1,1,2,2],"right_children":[2,4,6,-1,-1,-1,-1],"split_conditions":[4.2863226E-1,-1.412338E-2,-6.821588E-1,-5.4954864E-2,3.7774183E-3,-1.3844955E-2,6.924074E-2],"split_indices":[332,69,430,0,0,0,0],"split_type":[0,0,0,0,0,0,0],"sum_hessian":[5.807109E2,3.25151E2,2.555599E2,3.2128235E2,3.8686535E0,3.4417198E0,2.521182E2],"tree_param":{"num_deleted":"0","num_feature":"768","num_nodes":"7","size_leaf_vector":"1"}},{"base_weights":[-7.408199E-3,-5.475092E-2,6.9068176E-1,1.4387444E-2,6.965714E-2],"categories":[],"categories_nodes":[],"categories_segments":[],"categories_sizes":[],"default_left":[0,0,0,0,0],"id":51,"left_children":[1,-1,3,-1,-1],"loss_changes":[2.1605109E2,0E0,6.205063E-1,0E0,0E0],"parents":[2147483647,0,0,2,2],"right_children":[2,-1,4,-1,-1],"split_conditions":[4.1388005E-1,-5.475092E-2,-9.62919E-2,1.4387444E-2,6.965714E-2],"split_indices":[432,0,738,0,0],"split_type":[0,0,0,0,0],"sum_hessian":[5.710555E2,3.221625E2,2.48893E2,3.1041522E0,2.4578885E2],"tree_param":{"num_deleted":"0","num_feature":"768","num_nodes":"5","size_leaf_vector":"1"}},{"base_weights":[7.3500494E-3,-5.3807896E-2,6.8050705E-2],"categories":[],"categories_nodes":[],"categories_segments":[],"categories_sizes":[],"default_left":[0,0,0],"id":52,"left_children":[1,-1,-1],"loss_changes":[1.8274321E2,0E0,0E0],"parents":[2147483647,0,0],"right_children":[2,-1,-1],"split_conditions":[2.97678E-1,-5.3807896E-2,6.8050705E-2],"split_indices":[263,0,0],"split_type":[0,0,0],"sum_hessian":[4.9568567E2,2.7384964E2,2.2183601E2],"tree_param":{"num_deleted":"0","num_feature":"768","num_nodes":"3","size_leaf_vector":"1"}},{"base_weights":[-3.139702E-3,-5.524652E-2,6.436029E-1,6.5378375E-2,-1.8094022E-2],"categories":[],"categories_nodes":[],"categories_segments":[],"categories_sizes":[],"default_left":[0,0,0,0,0],"id":53,"left_children":[1,-1,3,-1,-1],"loss_changes":[2.1216563E2,0E0,2.4674072E0,0E0,0E0],"parents":[2147483647,0,0,2,2],"right_children":[2,-1,4,-1,-1],"split_conditions":[3.5047126E-1,-5.524652E-2,-4.6515357E-1,6.5378375E-2,-1.8094022E-2],"split_indices":[408,0,78,0,0],"split_type":[0,0,0,0,0],"sum_hessian":[5.9521655E2,3.2201025E2,2.7320633E2,2.701985E2,3.0078247E0],"tree_param":{"num_deleted":"0","num_feature":"768","num_nodes":"5","size_leaf_vector":"1"}},{"base_weights":[-2.3059305E-4,-5.3605384E-1,6.5675634E-1,-5.4458804E-2,1.53389E-2,6.675202E-2,-1.4813763E-2],"categories":[],"categories_nodes":[],"categories_segments":[],"categories_sizes":[],"default_left":[0,0,0,0,0,0,0],"id":54,"left_children":[1,3,5,-1,-1,-1,-1],"loss_changes":[1.97013E2,1.936943E0,2.328308E0,0E0,0E0,0E0,0E0],"parents":[2147483647,0,0,1,1,2,2],"right_children":[2,4,6,-1,-1,-1,-1],"split_conditions":[1.847173E-1,-1.412338E-2,-8.527855E-1,-5.4458804E-2,1.53389E-2,6.675202E-2,-1.4813763E-2],"split_indices":[328,69,668,0,0,0,0],"split_type":[0,0,0,0,0,0,0],"sum_hessian":[5.576843E2,3.073517E2,2.5033261E2,3.0394452E2,3.40719E0,2.4732011E2,3.0124974E0],"tree_param":{"num_deleted":"0","num_feature":"768","num_nodes":"7","size_leaf_vector":"1"}},{"base_weights":[4.5655617E-3,-5.382454E-1,6.67097E-1,-5.4310154E-2,-8.584467E-3,6.730314E-2,1.2794728E-2],"categories":[],"categories_nodes":[],"categories_segments":[],"categories_sizes":[],"default_left":[0,0,0,0,0,0,0],"id":55,"left_children":[1,3,5,-1,-1,-1,-1],"loss_changes":[1.9503783E2,5.4517365E-1,6.154251E-1,0E0,0E0,0E0,0E0],"parents":[2147483647,0,0,1,1,2,2],"right_children":[2,4,6,-1,-1,-1,-1],"split_conditions":[8.948767E-1,6.1687607E-1,6.732811E-1,-5.4310154E-2,-8.584467E-3,6.730314E-2,1.2794728E-2],"split_indices":[387,124,64,0,0,0,0],"split_type":[0,0,0,0,0,0,0],"sum_hessian":[5.402959E2,2.9700052E2,2.432954E2,2.9342926E2,3.5712674E0,2.4021751E2,3.0778868E0],"tree_param":{"num_deleted":"0","num_feature":"768","num_nodes":"7","size_leaf_vector":"1"}},{"base_weights":[-3.44192E-3,-5.341683E-2,6.593415E-2],"categories":[],"categories_nodes":[],"categories_segments":[],"categories_sizes":[],"default_left":[0,0,0],"id":56,"left_children":[1,-1,-1],"loss_changes":[1.603846E2,0E0,0E0],"parents":[2147483647,0,0],"right_children":[2,-1,-1],"split_conditions":[1.7680031E-1,-5.341683E-2,6.593415E-2],"split_indices":[434,0,0],"split_type":[0,0,0],"sum_hessian":[4.5398758E2,2.5230128E2,2.016863E2],"tree_param":{"num_deleted":"0","num_feature":"768","num_nodes":"3","size_leaf_vector":"1"}},{"base_weights":[-5.5073905E-3,-5.4707974E-2,6.2690914E-1,6.359019E-2,-6.3751973E-3],"categories":[],"categories_nodes":[],"categories_segments":[],"categories_sizes":[],"default_left":[0,0,0,0,0],"id":57,"left_children":[1,-1,3,-1,-1],"loss_changes":[1.8732033E2,0E0,1.6643524E0,0E0,0E0],"parents":[2147483647,0,0,2,2],"right_children":[2,-1,4,-1,-1],"split_conditions":[3.5047126E-1,-5.4707974E-2,-4.7686657E-1,6.359019E-2,-6.3751973E-3],"split_indices":[408,0,201,0,0],"split_type":[0,0,0,0,0],"sum_hessian":[5.4494366E2,2.9371378E2,2.5122986E2,2.4822195E2,3.0079012E0],"tree_param":{"num_deleted":"0","num_feature":"768","num_nodes":"5","size_leaf_vector":"1"}},{"base_weights":[-2.1495704E-5,-5.3143245E-1,6.4186E-1,-5.40328E-2,1.6288616E-2,1.2717743E-2,6.496913E-2],"categories":[],"categories_nodes":[],"categories_segments":[],"categories_sizes":[],"default_left":[0,0,0,0,0,0,0],"id":58,"left_children":[1,3,5,-1,-1,-1,-1],"loss_changes":[1.7203717E2,1.8305664E0,7.6013947E-1,0E0,0E0,0E0,0E0],"parents":[2147483647,0,0,1,1,2,2],"right_children":[2,4,6,-1,-1,-1,-1],"split_conditions":[1.847173E-1,7.24253E-1,-7.024561E-1,-5.40328E-2,1.6288616E-2,1.2717743E-2,6.496913E-2],"split_indices":[328,206,179,0,0,0,0],"split_type":[0,0,0,0,0,0,0],"sum_hessian":[5.02388E2,2.7502435E2,2.2736363E2,2.7190656E2,3.117816E0,3.8574138E0,2.2350623E2],"tree_param":{"num_deleted":"0","num_feature":"768","num_nodes":"7","size_leaf_vector":"1"}},{"base_weights":[-1.0323293E-2,-5.3833872E-2,6.438369E-1,6.5297306E-2,-0E0],"categories":[],"categories_nodes":[],"categories_segments":[],"categories_sizes":[],"default_left":[0,0,0,0,0],"id":59,"left_children":[1,-1,3,-1,-1],"loss_changes":[1.7243028E2,0E0,1.3519745E0,0E0,0E0],"parents":[2147483647,0,0,2,2],"right_children":[2,-1,4,-1,-1],"split_conditions":[4.1388005E-1,-5.3833872E-2,6.499931E-1,6.5297306E-2,-0E0],"split_indices":[432,0,211,0,0],"split_type":[0,0,0,0,0],"sum_hessian":[4.972365E2,2.7532977E2,2.2190674E2,2.1888356E2,3.0231783E0],"tree_param":{"num_deleted":"0","num_feature":"768","num_nodes":"5","size_leaf_vector":"1"}},{"base_weights":[3.0276927E-3,-5.306932E-2,6.412434E-2],"categories":[],"categories_nodes":[],"categories_segments":[],"categories_sizes":[],"default_left":[0,0,0],"id":60,"left_children":[1,-1,-1],"loss_changes":[1.488876E2,0E0,0E0],"parents":[2147483647,0,0],"right_children":[2,-1,-1],"split_conditions":[1.8706703E-1,-5.306932E-2,6.412434E-2],"split_indices":[282,0,0],"split_type":[0,0,0],"sum_hessian":[4.350646E2,2.3693481E2,1.9812979E2],"tree_param":{"num_deleted":"0","num_feature":"768","num_nodes":"3","size_leaf_vector":"1"}},{"base_weights":[-1.2809115E-2,-5.4236483E-2,6.157954E-1,6.2043037E-2,1.7243093E-2],"categories":[],"categories_nodes":[],"categories_segments":[],"categories_sizes":[],"default_left":[0,0,0,0,0],"id":61,"left_children":[1,-1,3,-1,-1],"loss_changes":[1.7044301E2,0E0,2.9470825E-1,0E0,0E0],"parents":[2147483647,0,0,2,2],"right_children":[2,-1,4,-1,-1],"split_conditions":[4.3264812E-1,-5.4236483E-2,-3.644805E-1,6.2043037E-2,1.7243093E-2],"split_indices":[408,0,219,0,0],"split_type":[0,0,0,0,0],"sum_hessian":[5.1004242E2,2.7699207E2,2.3305035E2,2.3002078E2,3.0295768E0],"tree_param":{"num_deleted":"0","num_feature":"768","num_nodes":"5","size_leaf_vector":"1"}},{"base_weights":[-2.9336254E-3,-5.2173483E-1,6.2860495E-1,-5.327369E-1,1.3013618E-2,1.5428436E-2,6.356155E-2,-5.3599216E-2,-1.7686125E-2],"categories":[],"categories_nodes":[],"categories_segments":[],"categories_sizes":[],"default_left":[0,0,0,0,0,0,0,0,0],"id":62,"left_children":[1,3,5,7,-1,-1,-1,-1,-1],"loss_changes":[1.5406493E2,1.9617691E0,5.279083E-1,1.2854004E-1,0E0,0E0,0E0,0E0,0E0],"parents":[2147483647,0,0,1,1,2,2,3,3],"right_children":[2,4,6,8,-1,-1,-1,-1,-1],"split_conditions":[4.6447265E-1,4.2863226E-1,-4.0349633E-1,1.2610383E0,1.3013618E-2,1.5428436E-2,6.356155E-2,-5.3599216E-2,-1.7686125E-2],"split_indices":[348,332,718,533,0,0,0,0,0],"split_type":[0,0,0,0,0,0,0,0,0],"sum_hessian":[4.682536E2,2.5725443E2,2.1099916E2,2.5331523E2,3.9391987E0,3.6160593E0,2.073831E2,2.5023912E2,3.076125E0],"tree_param":{"num_deleted":"0","num_feature":"768","num_nodes":"9","size_leaf_vector":"1"}},{"base_weights":[-3.9475593E-3,-5.3434003E-2,6.283661E-1,8.403797E-3,6.3579686E-2],"categories":[],"categories_nodes":[],"categories_segments":[],"categories_sizes":[],"default_left":[0,0,0,0,0],"id":63,"left_children":[1,-1,3,-1,-1],"loss_changes":[1.53606E2,0E0,7.1938324E-1,0E0,0E0],"parents":[2147483647,0,0,2,2],"right_children":[2,-1,4,-1,-1],"split_conditions":[3.8440728E-1,-5.3434003E-2,-3.6748195E-1,8.403797E-3,6.3579686E-2],"split_indices":[345,0,159,0,0],"split_type":[0,0,0,0,0],"sum_hessian":[4.5604034E2,2.4817838E2,2.0786197E2,3.146351E0,2.047156E2],"tree_param":{"num_deleted":"0","num_feature":"768","num_nodes":"5","size_leaf_vector":"1"}},{"base_weights":[8.1516727E-4,-5.2730765E-2,6.2421348E-2],"categories":[],"categories_nodes":[],"categories_segments":[],"categories_sizes":[],"default_left":[0,0,0],"id":64,"left_children":[1,-1,-1],"loss_changes":[1.3220143E2,0E0,0E0],"parents":[2147483647,0,0],"right_children":[2,-1,-1],"split_conditions":[2.8208584E-1,-5.2730765E-2,6.2421348E-2],"split_indices":[395,0,0],"split_type":[0,0,0],"sum_hessian":[3.995171E2,2.1628294E2,1.8323416E2],"tree_param":{"num_deleted":"0","num_feature":"768","num_nodes":"3","size_leaf_vector":"1"}},{"base_weights":[-2.5145544E-4,-5.3518057E-2,5.9949017E-1,6.070125E-2,2.472374E-3],"categories":[],"categories_nodes":[],"categories_segments":[],"categories_sizes":[],"default_left":[0,0,0,0,0],"id":65,"left_children":[1,-1,3,-1,-1],"loss_changes":[1.5180115E2,0E0,8.859482E-1,0E0,0E0],"parents":[2147483647,0,0,2,2],"right_children":[2,-1,4,-1,-1],"split_conditions":[3.7298203E-3,-5.3518057E-2,-6.4907527E-1,6.070125E-2,2.472374E-3],"split_indices":[301,0,558,0,0],"split_type":[0,0,0,0,0],"sum_hessian":[4.7118713E2,2.4919572E2,2.2199141E2,2.1889647E2,3.09493E0],"tree_param":{"num_deleted":"0","num_feature":"768","num_nodes":"5","size_leaf_vector":"1"}},{"base_weights":[9.714652E-3,-5.162691E-1,6.065765E-1,-5.3229935E-2,4.7262166E-2,-6.866466E-4,6.1720986E-2],"categories":[],"categories_nodes":[],"categories_segments":[],"categories_sizes":[],"default_left":[0,0,0,0,0,0,0],"id":66,"left_children":[1,3,5,-1,-1,-1,-1],"loss_changes":[1.3628668E2,3.9140968E0,1.3922195E0,0E0,0E0,0E0,0E0],"parents":[2147483647,0,0,1,1,2,2],"right_children":[2,4,6,-1,-1,-1,-1],"split_conditions":[4.2863226E-1,5.70775E-1,-7.466124E-1,-5.3229935E-2,4.7262166E-2,-6.866466E-4,6.1720986E-2],"split_indices":[332,211,200,0,0,0,0],"split_type":[0,0,0,0,0,0,0],"sum_hessian":[4.320912E2,2.296659E2,2.0242531E2,2.265562E2,3.1096964E0,3.2948391E0,1.9913046E2],"tree_param":{"num_deleted":"0","num_feature":"768","num_nodes":"7","size_leaf_vector":"1"}},{"base_weights":[7.5241615E-4,-5.305394E-2,6.070308E-1,-1.4591525E-2,6.200053E-2],"categories":[],"categories_nodes":[],"categories_segments":[],"categories_sizes":[],"default_left":[0,0,0,0,0],"id":67,"left_children":[1,-1,3,-1,-1],"loss_changes":[1.3642607E2,0E0,2.0710297E0,0E0,0E0],"parents":[2147483647,0,0,2,2],"right_children":[2,-1,4,-1,-1],"split_conditions":[3.8440728E-1,-5.305394E-2,-4.499691E-1,-1.4591525E-2,6.200053E-2],"split_indices":[345,0,624,0,0],"split_type":[0,0,0,0,0],"sum_hessian":[4.2151422E2,2.2462852E2,1.9688571E2,3.031051E0,1.9385466E2],"tree_param":{"num_deleted":"0","num_feature":"768","num_nodes":"5","size_leaf_vector":"1"}},{"base_weights":[4.359694E-3,-5.241866E-2,6.097885E-2],"categories":[],"categories_nodes":[],"categories_segments":[],"categories_sizes":[],"default_left":[0,0,0],"id":68,"left_children":[1,-1,-1],"loss_changes":[1.16239105E2,0E0,0E0],"parents":[2147483647,0,0],"right_children":[2,-1,-1],"split_conditions":[2.8208584E-1,-5.241866E-2,6.097885E-2],"split_indices":[395,0,0],"split_type":[0,0,0],"sum_hessian":[3.612248E2,1.928412E2,1.6838358E2],"tree_param":{"num_deleted":"0","num_feature":"768","num_nodes":"3","size_leaf_vector":"1"}},{"base_weights":[2.1454159E-3,-5.337746E-2,5.8829E-1,5.9602596E-2,2.5557212E-3],"categories":[],"categories_nodes":[],"categories_segments":[],"categories_sizes":[],"default_left":[0,0,0,0,0],"id":69,"left_children":[1,-1,3,-1,-1],"loss_changes":[1.4138364E2,0E0,8.587723E-1,0E0,0E0],"parents":[2147483647,0,0,2,2],"right_children":[2,-1,4,-1,-1],"split_conditions":[3.5047126E-1,-5.337746E-2,-5.3680664E-1,5.9602596E-2,2.5557212E-3],"split_indices":[408,0,523,0,0],"split_type":[0,0,0,0,0],"sum_hessian":[4.4806787E2,2.3401942E2,2.1404843E2,2.1091212E2,3.1363082E0],"tree_param":{"num_deleted":"0","num_feature":"768","num_nodes":"5","size_leaf_vector":"1"}},{"base_weights":[5.809954E-3,-5.1175094E-1,5.9657216E-1,-5.285544E-2,2.8668506E-2,6.0502406E-2,3.5233502E-3],"categories":[],"categories_nodes":[],"categories_segments":[],"categories_sizes":[],"default_left":[0,0,0,0,0,0,0],"id":70,"left_children":[1,3,5,-1,-1,-1,-1],"loss_changes":[1.2344397E2,3.061615E0,8.0947876E-1,0E0,0E0,0E0,0E0],"parents":[2147483647,0,0,1,1,2,2],"right_children":[2,4,6,-1,-1,-1,-1],"split_conditions":[3.432399E-1,-1.412338E-2,-2.7296826E-1,-5.285544E-2,2.8668506E-2,6.0502406E-2,3.5233502E-3],"split_indices":[328,69,617,0,0,0,0],"split_type":[0,0,0,0,0,0,0],"sum_hessian":[4.0170816E2,2.1410095E2,1.8760722E2,2.1014166E2,3.9592767E0,1.8457222E2,3.0350022E0],"tree_param":{"num_deleted":"0","num_feature":"768","num_nodes":"7","size_leaf_vector":"1"}},{"base_weights":[3.379579E-3,-5.2534558E-2,5.96769E-1,6.0623646E-2,6.551941E-4],"categories":[],"categories_nodes":[],"categories_segments":[],"categories_sizes":[],"default_left":[0,0,0,0,0],"id":71,"left_children":[1,-1,3,-1,-1],"loss_changes":[1.2595049E2,0E0,9.92157E-1,0E0,0E0],"parents":[2147483647,0,0,2,2],"right_children":[2,-1,4,-1,-1],"split_conditions":[2.2338009E-1,-5.2534558E-2,-4.6348807E-1,6.0623646E-2,6.551941E-4],"split_indices":[444,0,228,0,0],"split_type":[0,0,0,0,0],"sum_hessian":[3.994267E2,2.1119377E2,1.8823293E2,1.8506773E2,3.1651907E0],"tree_param":{"num_deleted":"0","num_feature":"768","num_nodes":"5","size_leaf_vector":"1"}},{"base_weights":[-0E0,-5.215012E-2,5.9814334E-2],"categories":[],"categories_nodes":[],"categories_segments":[],"categories_sizes":[],"default_left":[0,0,0],"id":72,"left_children":[1,-1,-1],"loss_changes":[1.0649925E2,0E0,0E0],"parents":[2147483647,0,0],"right_children":[2,-1,-1],"split_conditions":[2.97678E-1,-5.215012E-2,5.9814334E-2],"split_indices":[263,0,0],"split_type":[0,0,0],"sum_hessian":[3.3943994E2,1.8148721E2,1.5795273E2],"tree_param":{"num_deleted":"0","num_feature":"768","num_nodes":"3","size_leaf_vector":"1"}},{"base_weights":[-5.243079E-3,-5.3027462E-2,5.7682204E-1,5.8485836E-2,7.3957206E-3],"categories":[],"categories_nodes":[],"categories_segments":[],"categories_sizes":[],"default_left":[0,0,0,0,0],"id":73,"left_children":[1,-1,3,-1,-1],"loss_changes":[1.25126526E2,0E0,6.7523956E-1,0E0,0E0],"parents":[2147483647,0,0,2,2],"right_children":[2,-1,4,-1,-1],"split_conditions":[3.7298203E-3,-5.3027462E-2,8.213162E-3,5.8485836E-2,7.3957206E-3],"split_indices":[301,0,504,0,0],"split_type":[0,0,0,0,0],"sum_hessian":[4.0745636E2,2.1436061E2,1.9309573E2,1.8970218E2,3.3935564E0],"tree_param":{"num_deleted":"0","num_feature":"768","num_nodes":"5","size_leaf_vector":"1"}},{"base_weights":[-2.3709133E-3,-5.1084024E-1,5.7769936E-1,-5.255227E-2,1.9328028E-2,5.9199154E-2,-1.425914E-2],"categories":[],"categories_nodes":[],"categories_segments":[],"categories_sizes":[],"default_left":[0,0,0,0,0,0,0],"id":74,"left_children":[1,3,5,-1,-1,-1,-1],"loss_changes":[1.10547554E2,2.2006798E0,1.930851E0,0E0,0E0,0E0,0E0],"parents":[2147483647,0,0,1,1,2,2],"right_children":[2,4,6,-1,-1,-1,-1],"split_conditions":[3.7009805E-1,1.9712591E-1,-4.797703E-1,-5.255227E-2,1.9328028E-2,5.9199154E-2,-1.425914E-2],"split_indices":[332,30,525,0,0,0,0],"split_type":[0,0,0,0,0,0,0],"sum_hessian":[3.7282568E2,1.9883E2,1.739957E2,1.9515623E2,3.6737602E0,1.7092119E2,3.074506E0],"tree_param":{"num_deleted":"0","num_feature":"768","num_nodes":"7","size_leaf_vector":"1"}},{"base_weights":[-2.383976E-3,-5.22919E-2,5.8987476E-2],"categories":[],"categories_nodes":[],"categories_segments":[],"categories_sizes":[],"default_left":[0,0,0],"id":75,"left_children":[1,-1,-1],"loss_changes":[1.1060853E2,0E0,0E0],"parents":[2147483647,0,0],"right_children":[2,-1,-1],"split_conditions":[7.5162333E-1,-5.22919E-2,5.8987476E-2],"split_indices":[432,0,0],"split_type":[0,0,0],"sum_hessian":[3.5680026E2,1.9005086E2,1.667494E2],"tree_param":{"num_deleted":"0","num_feature":"768","num_nodes":"3","size_leaf_vector":"1"}},{"base_weights":[-6.1889347E-3,-5.188033E-2,5.8657724E-2],"categories":[],"categories_nodes":[],"categories_segments":[],"categories_sizes":[],"default_left":[0,0,0],"id":76,"left_children":[1,-1,-1],"loss_changes":[9.5293884E1,0E0,0E0],"parents":[2147483647,0,0],"right_children":[2,-1,-1],"split_conditions":[1.7680031E-1,-5.188033E-2,5.8657724E-2],"split_indices":[434,0,0],"split_type":[0,0,0],"sum_hessian":[3.1163147E2,1.6727141E2,1.4436006E2],"tree_param":{"num_deleted":"0","num_feature":"768","num_nodes":"3","size_leaf_vector":"1"}},{"base_weights":[6.916904E-3,-5.266821E-2,5.676527E-1,1.9081038E-3,5.761978E-2],"categories":[],"categories_nodes":[],"categories_segments":[],"categories_sizes":[],"default_left":[0,0,0,0,0],"id":77,"left_children":[1,-1,3,-1,-1],"loss_changes":[1.12168816E2,0E0,7.8671265E-1,0E0,0E0],"parents":[2147483647,0,0,2,2],"right_children":[2,-1,4,-1,-1],"split_conditions":[3.5047126E-1,-5.266821E-2,-7.981604E-2,1.9081038E-3,5.761978E-2],"split_indices":[408,0,226,0,0],"split_type":[0,0,0,0,0],"sum_hessian":[3.7287277E2,1.9099928E2,1.8187347E2,3.0186749E0,1.7885481E2],"tree_param":{"num_deleted":"0","num_feature":"768","num_nodes":"5","size_leaf_vector":"1"}},{"base_weights":[-9.884879E-4,-5.059781E-1,5.661595E-1,-5.2264955E-2,2.5474504E-2,-1.0376781E-2,5.801618E-2],"categories":[],"categories_nodes":[],"categories_segments":[],"categories_sizes":[],"default_left":[0,0,0,0,0,0,0],"id":78,"left_children":[1,3,5,-1,-1,-1,-1],"loss_changes":[9.829562E1,2.4637375E0,1.6234741E0,0E0,0E0,0E0,0E0],"parents":[2147483647,0,0,1,1,2,2],"right_children":[2,4,6,-1,-1,-1,-1],"split_conditions":[4.2863226E-1,8.1461394E-1,-5.8572453E-1,-5.2264955E-2,2.5474504E-2,-1.0376781E-2,5.801618E-2],"split_indices":[332,57,674,0,0,0,0],"split_type":[0,0,0,0,0,0,0],"sum_hessian":[3.412272E2,1.8065543E2,1.6057178E2,1.7721613E2,3.4393117E0,3.009982E0,1.5756178E2],"tree_param":{"num_deleted":"0","num_feature":"768","num_nodes":"7","size_leaf_vector":"1"}},{"base_weights":[-4.2491383E-3,-5.2179344E-2,5.7019484E-1,5.839601E-2,-7.893081E-3],"categories":[],"categories_nodes":[],"categories_segments":[],"categories_sizes":[],"default_left":[0,0,0,0,0],"id":79,"left_children":[1,-1,3,-1,-1],"loss_changes":[9.965624E1,0E0,1.5154266E0,0E0,0E0],"parents":[2147483647,0,0,2,2],"right_children":[2,-1,4,-1,-1],"split_conditions":[1.2642306E-1,-5.2179344E-2,-6.5344745E-1,5.839601E-2,-7.893081E-3],"split_indices":[444,0,590,0,0],"split_type":[0,0,0,0,0],"sum_hessian":[3.3321964E2,1.7543106E2,1.5778857E2,1.5476117E2,3.027405E0],"tree_param":{"num_deleted":"0","num_feature":"768","num_nodes":"5","size_leaf_vector":"1"}},{"base_weights":[-2.8685904E-3,-5.1644452E-2,5.7512052E-2],"categories":[],"categories_nodes":[],"categories_segments":[],"categories_sizes":[],"default_left":[0,0,0],"id":80,"left_children":[1,-1,-1],"loss_changes":[8.503807E1,0E0,0E0],"parents":[2147483647,0,0],"right_children":[2,-1,-1],"split_conditions":[1.3242483E-2,-5.1644452E-2,5.7512052E-2],"split_indices":[282,0,0],"split_type":[0,0,0],"sum_hessian":[2.8449576E2,1.5078992E2,1.3370584E2],"tree_param":{"num_deleted":"0","num_feature":"768","num_nodes":"3","size_leaf_vector":"1"}},{"base_weights":[-5.7937265E-3,-5.2370824E-2,5.558106E-1,-0E0,5.67033E-2],"categories":[],"categories_nodes":[],"categories_segments":[],"categories_sizes":[],"default_left":[0,0,0,0,0],"id":81,"left_children":[1,-1,3,-1,-1],"loss_changes":[9.8834465E1,0E0,1.0679855E0,0E0,0E0],"parents":[2147483647,0,0,2,2],"right_children":[2,-1,4,-1,-1],"split_conditions":[8.776844E-3,-5.2370824E-2,-4.2733413E-1,-0E0,5.67033E-2],"split_indices":[403,0,160,0,0],"split_type":[0,0,0,0,0],"sum_hessian":[3.378076E2,1.7586734E2,1.6194026E2,3.06421E0,1.5887605E2],"tree_param":{"num_deleted":"0","num_feature":"768","num_nodes":"5","size_leaf_vector":"1"}},{"base_weights":[9.730719E-3,-5.147442E-1,5.478143E-1,-5.19845E-2,-1.7534196E-2,5.7070047E-1,-3.8831856E-2,1.7542306E-2,5.7792425E-2],"categories":[],"categories_nodes":[],"categories_segments":[],"categories_sizes":[],"default_left":[0,0,0,0,0,0,0,0,0],"id":82,"left_children":[1,3,5,-1,-1,7,-1,-1,-1],"loss_changes":[9.128096E1,1.22737885E-1,3.6620407E0,0E0,0E0,2.6995468E-1,0E0,0E0,0E0],"parents":[2147483647,0,0,1,1,2,2,5,5],"right_children":[2,4,6,-1,-1,8,-1,-1,-1],"split_conditions":[9.896278E-3,1.6116816E0,1.719327E-1,-5.19845E-2,-1.7534196E-2,-3.7055033E-1,-3.8831856E-2,1.7542306E-2,5.7792425E-2],"split_indices":[278,735,110,0,0,674,0,0,0],"split_type":[0,0,0,0,0,0,0,0,0],"sum_hessian":[3.21438E2,1.6270525E2,1.5873274E2,1.5948215E2,3.2230992E0,1.5543005E2,3.3026986E0,3.4917674E0,1.5193828E2],"tree_param":{"num_deleted":"0","num_feature":"768","num_nodes":"9","size_leaf_vector":"1"}},{"base_weights":[1.7605323E-3,-5.1880103E-2,5.663584E-1,1.458166E-2,5.7441838E-2],"categories":[],"categories_nodes":[],"categories_segments":[],"categories_sizes":[],"default_left":[0,0,0,0,0],"id":83,"left_children":[1,-1,3,-1,-1],"loss_changes":[9.014917E1,0E0,3.4323883E-1,0E0,0E0],"parents":[2147483647,0,0,2,2],"right_children":[2,-1,4,-1,-1],"split_conditions":[2.2338009E-1,-5.1880103E-2,-4.4199547E-1,1.458166E-2,5.7441838E-2],"split_indices":[444,0,733,0,0],"split_type":[0,0,0,0,0],"sum_hessian":[3.0470996E2,1.5848767E2,1.4622229E2,3.342095E0,1.4288019E2],"tree_param":{"num_deleted":"0","num_feature":"768","num_nodes":"5","size_leaf_vector":"1"}},{"base_weights":[-0E0,-5.1410463E-2,5.6720626E-2],"categories":[],"categories_nodes":[],"categories_segments":[],"categories_sizes":[],"default_left":[0,0,0],"id":84,"left_children":[1,-1,-1],"loss_changes":[7.643845E1,0E0,0E0],"parents":[2147483647,0,0],"right_children":[2,-1,-1],"split_conditions":[9.159058E-2,-5.1410463E-2,5.6720626E-2],"split_indices":[434,0,0],"split_type":[0,0,0],"sum_hessian":[2.60119E2,1.364316E2,1.2368739E2],"tree_param":{"num_deleted":"0","num_feature":"768","num_nodes":"3","size_leaf_vector":"1"}},{"base_weights":[1.7379344E-3,-5.1393807E-1,5.5836428E-2,-5.2118223E-2,-8.338918E-3],"categories":[],"categories_nodes":[],"categories_segments":[],"categories_sizes":[],"default_left":[0,0,0,0,0],"id":85,"left_children":[1,3,-1,-1,-1],"loss_changes":[8.995312E1,4.0315628E-1,0E0,0E0,0E0],"parents":[2147483647,0,0,1,1],"right_children":[2,4,-1,-1,-1],"split_conditions":[3.5320038E-1,9.613416E-1,5.5836428E-2,-5.2118223E-2,-8.338918E-3],"split_indices":[403,614,0,0,0],"split_type":[0,0,0,0,0],"sum_hessian":[3.113679E2,1.6157593E2,1.4979195E2,1.5846687E2,3.109048E0],"tree_param":{"num_deleted":"0","num_feature":"768","num_nodes":"5","size_leaf_vector":"1"}},{"base_weights":[-0E0,-5.016669E-1,5.5135816E-1,-5.1754333E-2,1.5699334E-2,-0E0,5.6471944E-2],"categories":[],"categories_nodes":[],"categories_segments":[],"categories_sizes":[],"default_left":[0,0,0,0,0,0,0],"id":86,"left_children":[1,3,5,-1,-1,-1,-1],"loss_changes":[8.081338E1,1.7171593E0,9.8236465E-1,0E0,0E0,0E0,0E0],"parents":[2147483647,0,0,1,1,2,2],"right_children":[2,4,6,-1,-1,-1,-1],"split_conditions":[4.2863226E-1,2.282002E-1,2.6486582E-1,-5.1754333E-2,1.5699334E-2,-0E0,5.6471944E-2],"split_indices":[332,78,577,0,0,0,0],"split_type":[0,0,0,0,0,0,0],"sum_hessian":[2.9017114E2,1.5199117E2,1.3818E2,1.4877124E2,3.2199254E0,3.4276633E0,1.3475233E2],"tree_param":{"num_deleted":"0","num_feature":"768","num_nodes":"7","size_leaf_vector":"1"}},{"base_weights":[-5.111665E-3,-5.1351875E-2,5.598673E-1,2.0164115E-2,5.6620475E-2],"categories":[],"categories_nodes":[],"categories_segments":[],"categories_sizes":[],"default_left":[0,0,0,0,0],"id":87,"left_children":[1,-1,3,-1,-1],"loss_changes":[8.211157E1,0E0,1.16241455E-1,0E0,0E0],"parents":[2147483647,0,0,2,2],"right_children":[2,-1,4,-1,-1],"split_conditions":[2.6536834E-1,-5.1351875E-2,-7.0480925E-1,2.0164115E-2,5.6620475E-2],"split_indices":[444,0,535,0,0],"split_type":[0,0,0,0,0],"sum_hessian":[2.838799E2,1.4956187E2,1.3431802E2,3.1797056E0,1.3113832E2],"tree_param":{"num_deleted":"0","num_feature":"768","num_nodes":"5","size_leaf_vector":"1"}},{"base_weights":[-2.8965694E-3,-5.1210936E-2,5.586598E-2],"categories":[],"categories_nodes":[],"categories_segments":[],"categories_sizes":[],"default_left":[0,0,0],"id":88,"left_children":[1,-1,-1],"loss_changes":[7.015302E1,0E0,0E0],"parents":[2147483647,0,0],"right_children":[2,-1,-1],"split_conditions":[9.159058E-2,-5.1210936E-2,5.586598E-2],"split_indices":[434,0,0],"split_type":[0,0,0],"sum_hessian":[2.4334755E2,1.2776126E2,1.15586296E2],"tree_param":{"num_deleted":"0","num_feature":"768","num_nodes":"3","size_leaf_vector":"1"}},{"base_weights":[3.722677E-3,-5.179113E-2,5.438696E-1,5.5391885E-2,4.268958E-3],"categories":[],"categories_nodes":[],"categories_segments":[],"categories_sizes":[],"default_left":[0,0,0,0,0],"id":89,"left_children":[1,-1,3,-1,-1],"loss_changes":[8.160414E1,0E0,6.337509E-1,0E0,0E0],"parents":[2147483647,0,0,2,2],"right_children":[2,-1,4,-1,-1],"split_conditions":[3.5047126E-1,-5.179113E-2,3.380239E-2,5.5391885E-2,4.268958E-3],"split_indices":[408,0,157,0,0],"split_type":[0,0,0,0,0],"sum_hessian":[2.8761493E2,1.4624161E2,1.413733E2,1.3829558E2,3.0777364E0],"tree_param":{"num_deleted":"0","num_feature":"768","num_nodes":"5","size_leaf_vector":"1"}},{"base_weights":[-6.770126E-3,-4.9249178E-1,5.505361E-1,-5.1499106E-2,2.0340567E-2,5.5767108E-2,1.9070804E-2],"categories":[],"categories_nodes":[],"categories_segments":[],"categories_sizes":[],"default_left":[0,0,0,0,0,0,0],"id":90,"left_children":[1,3,5,-1,-1,-1,-1],"loss_changes":[7.20496E1,2.36417E0,1.3682556E-1,0E0,0E0,0E0,0E0],"parents":[2147483647,0,0,1,1,2,2],"right_children":[2,4,6,-1,-1,-1,-1],"split_conditions":[3.432399E-1,-2.176561E-1,4.2788446E-2,-5.1499106E-2,2.0340567E-2,5.5767108E-2,1.9070804E-2],"split_indices":[328,69,592,0,0,0,0],"split_type":[0,0,0,0,0,0,0],"sum_hessian":[2.6418436E2,1.4131587E2,1.2286848E2,1.3728107E2,4.0348086E0,1.1966787E2,3.2006075E0],"tree_param":{"num_deleted":"0","num_feature":"768","num_nodes":"7","size_leaf_vector":"1"}},{"base_weights":[-8.823274E-3,-5.140212E-2,5.4492563E-1,5.5914115E-2,-0E0],"categories":[],"categories_nodes":[],"categories_segments":[],"categories_sizes":[],"default_left":[0,0,0,0,0],"id":91,"left_children":[1,-1,3,-1,-1],"loss_changes":[7.2221725E1,0E0,9.7690964E-1,0E0,0E0],"parents":[2147483647,0,0,2,2],"right_children":[2,-1,4,-1,-1],"split_conditions":[4.1388005E-1,-5.140212E-2,-5.1970893E-1,5.5914115E-2,-0E0],"split_indices":[432,0,598,0,0],"split_type":[0,0,0,0,0],"sum_hessian":[2.5617242E2,1.340907E2,1.22081726E2,1.1902758E2,3.0541425E0],"tree_param":{"num_deleted":"0","num_feature":"768","num_nodes":"5","size_leaf_vector":"1"}},{"base_weights":[2.603271E-3,-5.100006E-2,5.5339407E-2],"categories":[],"categories_nodes":[],"categories_segments":[],"categories_sizes":[],"default_left":[0,0,0],"id":92,"left_children":[1,-1,-1],"loss_changes":[6.3350815E1,0E0,0E0],"parents":[2147483647,0,0],"right_children":[2,-1,-1],"split_conditions":[2.97678E-1,-5.100006E-2,5.5339407E-2],"split_indices":[263,0,0],"split_type":[0,0,0],"sum_hessian":[2.2236478E2,1.15119316E2,1.0724546E2],"tree_param":{"num_deleted":"0","num_feature":"768","num_nodes":"3","size_leaf_vector":"1"}},{"base_weights":[6.4441552E-3,-5.1579673E-2,5.354682E-1,4.5325565E-3,5.477157E-2],"categories":[],"categories_nodes":[],"categories_segments":[],"categories_sizes":[],"default_left":[0,0,0,0,0],"id":93,"left_children":[1,-1,3,-1,-1],"loss_changes":[7.37253E1,0E0,7.1217346E-1,0E0,0E0],"parents":[2147483647,0,0,2,2],"right_children":[2,-1,4,-1,-1],"split_conditions":[-9.533346E-3,-5.1579673E-2,1.03594005E-1,4.5325565E-3,5.477157E-2],"split_indices":[403,0,21,0,0],"split_type":[0,0,0,0,0],"sum_hessian":[2.648451E2,1.3319444E2,1.3165065E2,3.523073E0,1.2812756E2],"tree_param":{"num_deleted":"0","num_feature":"768","num_nodes":"5","size_leaf_vector":"1"}},{"base_weights":[-1.2521535E-4,-4.8166206E-1,5.492067E-1,-5.058858E-1,2.045486E-2,5.5704307E-2,1.8327741E-2,-5.133731E-2,-1.4666773E-2],"categories":[],"categories_nodes":[],"categories_segments":[],"categories_sizes":[],"default_left":[0,0,0,0,0,0,0,0,0],"id":94,"left_children":[1,3,5,7,-1,-1,-1,-1,-1],"loss_changes":[6.409564E1,2.281763E0,1.4820099E-1,1.9557571E-1,0E0,0E0,0E0,0E0,0E0],"parents":[2147483647,0,0,1,1,2,2,3,3],"right_children":[2,4,6,8,-1,-1,-1,-1,-1],"split_conditions":[4.6447265E-1,9.551219E-1,-5.931594E-1,1.452505E-1,2.045486E-2,5.5704307E-2,1.8327741E-2,-5.133731E-2,-1.4666773E-2],"split_indices":[348,579,152,300,0,0,0,0,0],"split_type":[0,0,0,0,0,0,0,0,0],"sum_hessian":[2.4033148E2,1.2823108E2,1.12100395E2,1.24253365E2,3.9777184E0,1.0897122E2,3.1291702E0,1.2102332E2,3.2300432E0],"tree_param":{"num_deleted":"0","num_feature":"768","num_nodes":"9","size_leaf_vector":"1"}},{"base_weights":[-1.7052038E-3,-5.1213134E-2,5.3986174E-1,1.2269449E-2,5.5129718E-2],"categories":[],"categories_nodes":[],"categories_segments":[],"categories_sizes":[],"default_left":[0,0,0,0,0],"id":95,"left_children":[1,-1,3,-1,-1],"loss_changes":[6.5601074E1,0E0,4.1383743E-1,0E0,0E0],"parents":[2147483647,0,0,2,2],"right_children":[2,-1,4,-1,-1],"split_conditions":[1.2642306E-1,-5.1213134E-2,-5.459047E-1,1.2269449E-2,5.5129718E-2],"split_indices":[444,0,654,0,0],"split_type":[0,0,0,0,0],"sum_hessian":[2.3532521E2,1.2126866E2,1.1405656E2,3.589369E0,1.10467186E2],"tree_param":{"num_deleted":"0","num_feature":"768","num_nodes":"5","size_leaf_vector":"1"}},{"base_weights":[7.627469E-4,-5.082531E-2,5.468885E-2],"categories":[],"categories_nodes":[],"categories_segments":[],"categories_sizes":[],"default_left":[0,0,0],"id":96,"left_children":[1,-1,-1],"loss_changes":[5.7293667E1,0E0,0E0],"parents":[2147483647,0,0],"right_children":[2,-1,-1],"split_conditions":[1.8706703E-1,-5.082531E-2,5.468885E-2],"split_indices":[282,0,0],"split_type":[0,0,0],"sum_hessian":[2.0408844E2,1.0557429E2,9.851415E1],"tree_param":{"num_deleted":"0","num_feature":"768","num_nodes":"3","size_leaf_vector":"1"}},{"base_weights":[7.2083184E-3,-5.134654E-2,5.284436E-1,1.722324E-3,5.4227628E-2],"categories":[],"categories_nodes":[],"categories_segments":[],"categories_sizes":[],"default_left":[0,0,0,0,0],"id":97,"left_children":[1,-1,3,-1,-1],"loss_changes":[6.6436646E1,0E0,8.004074E-1,0E0,0E0],"parents":[2147483647,0,0,2,2],"right_children":[2,-1,4,-1,-1],"split_conditions":[-9.533346E-3,-5.134654E-2,1.03594005E-1,1.722324E-3,5.4227628E-2],"split_indices":[403,0,21,0,0],"split_type":[0,0,0,0,0],"sum_hessian":[2.4279291E2,1.2137336E2,1.2141954E2,3.448441E0,1.179711E2],"tree_param":{"num_deleted":"0","num_feature":"768","num_nodes":"5","size_leaf_vector":"1"}},{"base_weights":[1.8485782E-3,-5.039608E-1,5.234204E-1,-5.1094364E-2,-1.6346224E-2,-4.484571E-3,5.444633E-2],"categories":[],"categories_nodes":[],"categories_segments":[],"categories_sizes":[],"default_left":[0,0,0,0,0,0,0],"id":98,"left_children":[1,3,5,-1,-1,-1,-1],"loss_changes":[6.048455E1,1.255436E-1,1.4252338E0,0E0,0E0,0E0,0E0],"parents":[2147483647,0,0,1,1,2,2],"right_children":[2,4,6,-1,-1,-1,-1],"split_conditions":[1.1755216E-1,5.206073E-1,2.6486582E-1,-5.1094364E-2,-1.6346224E-2,-4.484571E-3,5.444633E-2],"split_indices":[328,65,577,0,0,0,0],"split_type":[0,0,0,0,0,0,0],"sum_hessian":[2.2726079E2,1.1529356E2,1.11967224E2,1.1219835E2,3.0952067E0,3.7880163E0,1.0817921E2],"tree_param":{"num_deleted":"0","num_feature":"768","num_nodes":"7","size_leaf_vector":"1"}},{"base_weights":[-1.1560911E-3,-5.0981738E-2,5.3744084E-1,5.4620128E-2,1.5281068E-2],"categories":[],"categories_nodes":[],"categories_segments":[],"categories_sizes":[],"default_left":[0,0,0,0,0],"id":99,"left_children":[1,-1,3,-1,-1],"loss_changes":[5.976464E1,0E0,2.0335007E-1,0E0,0E0],"parents":[2147483647,0,0,2,2],"right_children":[2,-1,4,-1,-1],"split_conditions":[4.1388005E-1,-5.0981738E-2,-5.3302497E-1,5.4620128E-2,1.5281068E-2],"split_indices":[432,0,175,0,0],"split_type":[0,0,0,0,0],"sum_hessian":[2.161582E2,1.1129149E2,1.04866714E2,1.01866516E2,3.000205E0],"tree_param":{"num_deleted":"0","num_feature":"768","num_nodes":"5","size_leaf_vector":"1"}},{"base_weights":[5.129457E-3,-5.06292E-2,5.412447E-2],"categories":[],"categories_nodes":[],"categories_segments":[],"categories_sizes":[],"default_left":[0,0,0],"id":100,"left_children":[1,-1,-1],"loss_changes":[5.1309875E1,0E0,0E0],"parents":[2147483647,0,0],"right_children":[2,-1,-1],"split_conditions":[2.97678E-1,-5.06292E-2,5.412447E-2],"split_indices":[263,0,0],"split_type":[0,0,0],"sum_hessian":[1.851266E2,9.467832E1,9.044828E1],"tree_param":{"num_deleted":"0","num_feature":"768","num_nodes":"3","size_leaf_vector":"1"}},{"base_weights":[2.1934186E-3,-5.000959E-1,5.3642374E-2,-5.1148325E-2,-4.33699E-3],"categories":[],"categories_nodes":[],"categories_segments":[],"categories_sizes":[],"default_left":[0,0,0,0,0],"id":101,"left_children":[1,3,-1,-1,-1],"loss_changes":[6.015567E1,5.227356E-1,0E0,0E0,0E0],"parents":[2147483647,0,0,1,1],"right_children":[2,4,-1,-1,-1],"split_conditions":[3.1350446E-1,-8.405638E-2,5.3642374E-2,-5.1148325E-2,-4.33699E-3],"split_indices":[381,105,0,0,0],"split_type":[0,0,0,0,0],"sum_hessian":[2.221653E2,1.1444219E2,1.07723114E2,1.1132766E2,3.11453E0],"tree_param":{"num_deleted":"0","num_feature":"768","num_nodes":"5","size_leaf_vector":"1"}},{"base_weights":[-8.526001E-3,-4.8347095E-1,5.3794473E-2,-5.0660677E-2,6.3583315E-3],"categories":[],"categories_nodes":[],"categories_segments":[],"categories_sizes":[],"default_left":[0,0,0,0,0],"id":102,"left_children":[1,3,-1,-1,-1],"loss_changes":[5.3173923E1,1.4650707E0,0E0,0E0,0E0],"parents":[2147483647,0,0,1,1],"right_children":[2,4,-1,-1,-1],"split_conditions":[6.031847E-1,6.318853E-1,5.3794473E-2,-5.0660677E-2,6.3583315E-3],"split_indices":[278,23,0,0,0],"split_type":[0,0,0,0,0],"sum_hessian":[2.028937E2,1.08710365E2,9.418334E1,1.0454569E2,4.164674E0],"tree_param":{"num_deleted":"0","num_feature":"768","num_nodes":"5","size_leaf_vector":"1"}},{"base_weights":[-0E0,-5.0609853E-2,5.2893376E-1,1.18454015E-2,5.394994E-2],"categories":[],"categories_nodes":[],"categories_segments":[],"categories_sizes":[],"default_left":[0,0,0,0,0],"id":103,"left_children":[1,-1,3,-1,-1],"loss_changes":[5.454545E1,0E0,3.0266953E-1,0E0,0E0],"parents":[2147483647,0,0,2,2],"right_children":[2,-1,4,-1,-1],"split_conditions":[2.3470259E-1,-5.0609853E-2,3.3063745E-1,1.18454015E-2,5.394994E-2],"split_indices":[562,0,312,0,0],"split_type":[0,0,0,0,0],"sum_hessian":[2.0175587E2,1.0306184E2,9.869404E1,3.0205352E0,9.56735E1],"tree_param":{"num_deleted":"0","num_feature":"768","num_nodes":"5","size_leaf_vector":"1"}},{"base_weights":[-3.7983553E-3,-5.0474346E-2,5.356394E-2],"categories":[],"categories_nodes":[],"categories_segments":[],"categories_sizes":[],"default_left":[0,0,0],"id":104,"left_children":[1,-1,-1],"loss_changes":[4.6427464E1,0E0,0E0],"parents":[2147483647,0,0],"right_children":[2,-1,-1],"split_conditions":[1.8706703E-1,-5.0474346E-2,5.356394E-2],"split_indices":[282,0,0],"split_type":[0,0,0],"sum_hessian":[1.6981898E2,8.818049E1,8.16385E1],"tree_param":{"num_deleted":"0","num_feature":"768","num_nodes":"3","size_leaf_vector":"1"}},{"base_weights":[-5.892788E-4,-5.093063E-2,5.212939E-1,9.774451E-3,5.3286027E-2],"categories":[],"categories_nodes":[],"categories_segments":[],"categories_sizes":[],"default_left":[0,0,0,0,0],"id":105,"left_children":[1,-1,3,-1,-1],"loss_changes":[5.3648655E1,0E0,3.7304497E-1,0E0,0E0],"parents":[2147483647,0,0,2,2],"right_children":[2,-1,4,-1,-1],"split_conditions":[-9.533346E-3,-5.093063E-2,-2.9202878E-2,9.774451E-3,5.3286027E-2],"split_indices":[403,0,214,0,0],"split_type":[0,0,0,0,0],"sum_hessian":[2.0007794E2,1.0142622E2,9.8651726E1,3.1034462E0,9.554828E1],"tree_param":{"num_deleted":"0","num_feature":"768","num_nodes":"5","size_leaf_vector":"1"}},{"base_weights":[1.7084657E-3,-4.8949283E-1,5.182618E-1,-5.068619E-2,-0E0,-8.095018E-3,5.4139E-2],"categories":[],"categories_nodes":[],"categories_segments":[],"categories_sizes":[],"default_left":[0,0,0,0,0,0,0],"id":106,"left_children":[1,3,5,-1,-1,-1,-1],"loss_changes":[4.7579975E1,8.4352875E-1,1.3578529E0,0E0,0E0,0E0,0E0],"parents":[2147483647,0,0,1,1,2,2],"right_children":[2,4,6,-1,-1,-1,-1],"split_conditions":[4.396634E-1,3.0361384E-1,-5.589621E-1,-5.068619E-2,-0E0,-8.095018E-3,5.4139E-2],"split_indices":[577,407,69,0,0,0,0],"split_type":[0,0,0,0,0,0,0],"sum_hessian":[1.8550969E2,9.50159E1,9.04938E1,9.1831474E1,3.184423E0,3.1094508E0,8.7384346E1],"tree_param":{"num_deleted":"0","num_feature":"768","num_nodes":"7","size_leaf_vector":"1"}},{"base_weights":[-0E0,-5.0660413E-2,5.157994E-1,-0E0,5.3442866E-2],"categories":[],"categories_nodes":[],"categories_segments":[],"categories_sizes":[],"default_left":[0,0,0,0,0],"id":107,"left_children":[1,-1,3,-1,-1],"loss_changes":[4.7904884E1,0E0,8.487263E-1,0E0,0E0],"parents":[2147483647,0,0,2,2],"right_children":[2,-1,4,-1,-1],"split_conditions":[2.2338009E-1,-5.0660413E-2,-5.4152215E-1,-0E0,5.3442866E-2],"split_indices":[444,0,563,0,0],"split_type":[0,0,0,0,0],"sum_hessian":[1.8132994E2,9.1527E1,8.980293E1,3.24855E0,8.655439E1],"tree_param":{"num_deleted":"0","num_feature":"768","num_nodes":"5","size_leaf_vector":"1"}},{"base_weights":[-9.926212E-3,-5.0298136E-2,5.3047974E-2],"categories":[],"categories_nodes":[],"categories_segments":[],"categories_sizes":[],"default_left":[0,0,0],"id":108,"left_children":[1,-1,-1],"loss_changes":[4.1285904E1,0E0,0E0],"parents":[2147483647,0,0],"right_children":[2,-1,-1],"split_conditions":[1.8706703E-1,-5.0298136E-2,5.3047974E-2],"split_indices":[282,0,0],"split_type":[0,0,0],"sum_hessian":[1.52957E2,8.011555E1,7.284146E1],"tree_param":{"num_deleted":"0","num_feature":"768","num_nodes":"3","size_leaf_vector":"1"}},{"base_weights":[3.580188E-3,-5.071616E-2,5.186235E-1,5.282986E-2,1.6604744E-2],"categories":[],"categories_nodes":[],"categories_segments":[],"categories_sizes":[],"default_left":[0,0,0,0,0],"id":109,"left_children":[1,-1,3,-1,-1],"loss_changes":[4.853049E1,0E0,1.5650368E-1,0E0,0E0],"parents":[2147483647,0,0,2,2],"right_children":[2,-1,4,-1,-1],"split_conditions":[-9.533346E-3,-5.071616E-2,-3.7700582E-1,5.282986E-2,1.6604744E-2],"split_indices":[403,0,159,0,0],"split_type":[0,0,0,0,0],"sum_hessian":[1.8248438E2,9.1534996E1,9.094938E1,8.7759125E1,3.1902485E0],"tree_param":{"num_deleted":"0","num_feature":"768","num_nodes":"5","size_leaf_vector":"1"}},{"base_weights":[4.3157977E-3,-4.8136157E-1,5.1510763E-1,-5.048796E-2,8.928079E-3,1.0392598E-2,5.300585E-2],"categories":[],"categories_nodes":[],"categories_segments":[],"categories_sizes":[],"default_left":[0,0,0,0,0,0,0],"id":110,"left_children":[1,3,5,-1,-1,-1,-1],"loss_changes":[4.2925278E1,1.2755852E0,4.005127E-1,0E0,0E0,0E0,0E0],"parents":[2147483647,0,0,1,1,2,2],"right_children":[2,4,6,-1,-1,-1,-1],"split_conditions":[3.432399E-1,-2.176561E-1,-5.928189E-1,-5.048796E-2,8.928079E-3,1.0392598E-2,5.300585E-2],"split_indices":[328,69,683,0,0,0,0],"split_type":[0,0,0,0,0,0,0],"sum_hessian":[1.7101688E2,8.759273E1,8.342416E1,8.4404625E1,3.188109E0,3.4405699E0,7.998358E1],"tree_param":{"num_deleted":"0","num_feature":"768","num_nodes":"7","size_leaf_vector":"1"}},{"base_weights":[3.8044443E-3,-5.042951E-2,5.193367E-1,1.304044E-2,5.3105544E-2],"categories":[],"categories_nodes":[],"categories_segments":[],"categories_sizes":[],"default_left":[0,0,0,0,0],"id":111,"left_children":[1,-1,3,-1,-1],"loss_changes":[4.455118E1,0E0,2.4980164E-1,0E0,0E0],"parents":[2147483647,0,0,2,2],"right_children":[2,-1,4,-1,-1],"split_conditions":[3.8440728E-1,-5.042951E-2,9.676319E-2,1.304044E-2,5.3105544E-2],"split_indices":[345,0,624,0,0],"split_type":[0,0,0,0,0],"sum_hessian":[1.6807497E2,8.4560974E1,8.351399E1,3.0470538E0,8.0466934E1],"tree_param":{"num_deleted":"0","num_feature":"768","num_nodes":"5","size_leaf_vector":"1"}},{"base_weights":[-4.0962263E-3,-5.0127085E-2,5.2546512E-2],"categories":[],"categories_nodes":[],"categories_segments":[],"categories_sizes":[],"default_left":[0,0,0],"id":112,"left_children":[1,-1,-1],"loss_changes":[3.7556065E1,0E0,0E0],"parents":[2147483647,0,0],"right_children":[2,-1,-1],"split_conditions":[9.159058E-2,-5.0127085E-2,5.2546512E-2],"split_indices":[434,0,0],"split_type":[0,0,0],"sum_hessian":[1.4065318E2,7.266988E1,6.798331E1],"tree_param":{"num_deleted":"0","num_feature":"768","num_nodes":"3","size_leaf_vector":"1"}},{"base_weights":[1.6199208E-4,-5.053855E-2,5.102234E-1,1.2025976E-2,5.2296996E-2],"categories":[],"categories_nodes":[],"categories_segments":[],"categories_sizes":[],"default_left":[0,0,0,0,0],"id":113,"left_children":[1,-1,3,-1,-1],"loss_changes":[4.3494213E1,0E0,2.906189E-1,0E0,0E0],"parents":[2147483647,0,0,2,2],"right_children":[2,-1,4,-1,-1],"split_conditions":[-9.533346E-3,-5.053855E-2,7.1147937E-1,1.2025976E-2,5.2296996E-2],"split_indices":[403,0,450,0,0],"split_type":[0,0,0,0,0],"sum_hessian":[1.6667169E2,8.361238E1,8.305932E1,3.207587E0,7.985173E1],"tree_param":{"num_deleted":"0","num_feature":"768","num_nodes":"5","size_leaf_vector":"1"}},{"base_weights":[2.443978E-3,-4.7230142E-1,5.2494377E-2,-5.0028414E-2,3.9300355E-3],"categories":[],"categories_nodes":[],"categories_segments":[],"categories_sizes":[],"default_left":[0,0,0,0,0],"id":114,"left_children":[1,3,-1,-1,-1],"loss_changes":[3.93653E1,1.2545471E0,0E0,0E0,0E0],"parents":[2147483647,0,0,1,1],"right_children":[2,4,-1,-1,-1],"split_conditions":[4.3332148E-1,6.318853E-1,5.2494377E-2,-5.0028414E-2,3.9300355E-3],"split_indices":[348,23,0,0,0],"split_type":[0,0,0,0,0],"sum_hessian":[1.566755E2,8.203912E1,7.463638E1,7.79909E1,4.048227E0],"tree_param":{"num_deleted":"0","num_feature":"768","num_nodes":"5","size_leaf_vector":"1"}},{"base_weights":[-1.0784563E-3,-4.980346E-2,5.079381E-1,5.2649915E-2,1.9461865E-3],"categories":[],"categories_nodes":[],"categories_segments":[],"categories_sizes":[],"default_left":[0,0,0,0,0],"id":115,"left_children":[1,-1,3,-1,-1],"loss_changes":[3.9674248E1,0E0,6.3677025E-1,0E0,0E0],"parents":[2147483647,0,0,2,2],"right_children":[2,-1,4,-1,-1],"split_conditions":[8.948767E-1,-4.980346E-2,7.657677E-2,5.2649915E-2,1.9461865E-3],"split_indices":[387,0,529,0,0],"split_type":[0,0,0,0,0],"sum_hessian":[1.5484459E2,7.8460815E1,7.6383766E1,7.331538E1,3.068391E0],"tree_param":{"num_deleted":"0","num_feature":"768","num_nodes":"5","size_leaf_vector":"1"}},{"base_weights":[-3.2970367E-3,-4.9979165E-2,5.2037843E-2],"categories":[],"categories_nodes":[],"categories_segments":[],"categories_sizes":[],"default_left":[0,0,0],"id":116,"left_children":[1,-1,-1],"loss_changes":[3.4367718E1,0E0,0E0],"parents":[2147483647,0,0],"right_children":[2,-1,-1],"split_conditions":[1.3242483E-2,-4.9979165E-2,5.2037843E-2],"split_indices":[282,0,0],"split_type":[0,0,0],"sum_hessian":[1.3019011E2,6.695084E1,6.3239265E1],"tree_param":{"num_deleted":"0","num_feature":"768","num_nodes":"3","size_leaf_vector":"1"}},{"base_weights":[-5.3161257E-3,-4.9919855E-2,5.1067572E-2],"categories":[],"categories_nodes":[],"categories_segments":[],"categories_sizes":[],"default_left":[0,0,0],"id":117,"left_children":[1,-1,-1],"loss_changes":[3.974317E1,0E0,0E0],"parents":[2147483647,0,0],"right_children":[2,-1,-1],"split_conditions":[3.7298203E-3,-4.9919855E-2,5.1067572E-2],"split_indices":[301,0,0],"split_type":[0,0,0],"sum_hessian":[1.5395802E2,7.877998E1,7.517804E1],"tree_param":{"num_deleted":"0","num_feature":"768","num_nodes":"3","size_leaf_vector":"1"}},{"base_weights":[1.0978631E-3,-4.7781205E-1,5.130747E-1,-5.0192263E-2,2.482472E-3,8.291919E-3,5.3063106E-2],"categories":[],"categories_nodes":[],"categories_segments":[],"categories_sizes":[],"default_left":[0,0,0,0,0,0,0],"id":118,"left_children":[1,3,5,-1,-1,-1,-1],"loss_changes":[3.5341717E1,9.6142197E-1,4.2145348E-1,0E0,0E0,0E0,0E0],"parents":[2147483647,0,0,1,1,2,2],"right_children":[2,4,6,-1,-1,-1,-1],"split_conditions":[4.3332148E-1,-2.176561E-1,-2.2666821E-1,-5.0192263E-2,2.482472E-3,8.291919E-3,5.3063106E-2],"split_indices":[348,69,228,0,0,0,0],"split_type":[0,0,0,0,0,0,0],"sum_hessian":[1.4212546E2,7.336772E1,6.875773E1,7.020069E1,3.1670272E0,3.1440172E0,6.5613716E1],"tree_param":{"num_deleted":"0","num_feature":"768","num_nodes":"7","size_leaf_vector":"1"}},{"base_weights":[1.7776304E-3,-5.0397452E-2,4.9951562E-1,-0E0,5.2223008E-2],"categories":[],"categories_nodes":[],"categories_segments":[],"categories_sizes":[],"default_left":[0,0,0,0,0],"id":119,"left_children":[1,-1,3,-1,-1],"loss_changes":[3.527413E1,0E0,8.187256E-1,0E0,0E0],"parents":[2147483647,0,0,2,2],"right_children":[2,-1,4,-1,-1],"split_conditions":[4.0498573E-1,-5.0397452E-2,-6.726732E-1,-0E0,5.2223008E-2],"split_indices":[33,0,654,0,0],"split_type":[0,0,0,0,0],"sum_hessian":[1.3812743E2,6.840628E1,6.972114E1,3.016237E0,6.67049E1],"tree_param":{"num_deleted":"0","num_feature":"768","num_nodes":"5","size_leaf_vector":"1"}},{"base_weights":[-2.2271588E-3,-4.9795598E-2,5.166647E-2],"categories":[],"categories_nodes":[],"categories_segments":[],"categories_sizes":[],"default_left":[0,0,0],"id":120,"left_children":[1,-1,-1],"loss_changes":[3.055104E1,0E0,0E0],"parents":[2147483647,0,0],"right_children":[2,-1,-1],"split_conditions":[1.7680031E-1,-4.9795598E-2,5.166647E-2],"split_indices":[434,0,0],"split_type":[0,0,0],"sum_hessian":[1.1677661E2,5.9840458E1,5.6936153E1],"tree_param":{"num_deleted":"0","num_feature":"768","num_nodes":"3","size_leaf_vector":"1"}},{"base_weights":[-9.902685E-3,-4.957102E-2,5.1120687E-2],"categories":[],"categories_nodes":[],"categories_segments":[],"categories_sizes":[],"default_left":[0,0,0],"id":121,"left_children":[1,-1,-1],"loss_changes":[3.5640625E1,0E0,0E0],"parents":[2147483647,0,0],"right_children":[2,-1,-1],"split_conditions":[5.8788884E-1,-4.957102E-2,5.1120687E-2],"split_indices":[325,0,0],"split_type":[0,0,0],"sum_hessian":[1.3878873E2,7.195184E1,6.683689E1],"tree_param":{"num_deleted":"0","num_feature":"768","num_nodes":"3","size_leaf_vector":"1"}},{"base_weights":[7.6617287E-3,-4.8032483E-1,4.995646E-1,-5.0034713E-2,-4.0190644E-3,4.5737482E-4,5.2936405E-2],"categories":[],"categories_nodes":[],"categories_segments":[],"categories_sizes":[],"default_left":[0,0,0,0,0,0,0],"id":122,"left_children":[1,3,5,-1,-1,-1,-1],"loss_changes":[3.2294872E1,5.2015305E-1,9.3380547E-1,0E0,0E0,0E0,0E0],"parents":[2147483647,0,0,1,1,2,2],"right_children":[2,4,6,-1,-1,-1,-1],"split_conditions":[3.4238434E-1,4.7868907E-2,9.887993E-3,-5.0034713E-2,-4.0190644E-3,4.5737482E-4,5.2936405E-2],"split_indices":[577,123,30,0,0,0,0],"split_type":[0,0,0,0,0,0,0],"sum_hessian":[1.3253078E2,6.6439995E1,6.609078E1,6.3200893E1,3.2391021E0,4.00892E0,6.2081863E1],"tree_param":{"num_deleted":"0","num_feature":"768","num_nodes":"7","size_leaf_vector":"1"}},{"base_weights":[3.1892841E-3,-4.9678557E-2,4.9809095E-1,5.1719095E-3,5.1769026E-2],"categories":[],"categories_nodes":[],"categories_segments":[],"categories_sizes":[],"default_left":[0,0,0,0,0],"id":123,"left_children":[1,-1,3,-1,-1],"loss_changes":[3.240152E1,0E0,4.928589E-1,0E0,0E0],"parents":[2147483647,0,0,2,2],"right_children":[2,-1,4,-1,-1],"split_conditions":[3.994767E-1,-4.9678557E-2,-3.5401022E-1,5.1719095E-3,5.1769026E-2],"split_indices":[233,0,736,0,0],"split_type":[0,0,0,0,0],"sum_hessian":[1.2894728E2,6.4042465E1,6.490482E1,3.0976279E0,6.1807194E1],"tree_param":{"num_deleted":"0","num_feature":"768","num_nodes":"5","size_leaf_vector":"1"}},{"base_weights":[-1.8650016E-2,-4.9655586E-2,5.129352E-2],"categories":[],"categories_nodes":[],"categories_segments":[],"categories_sizes":[],"default_left":[0,0,0],"id":124,"left_children":[1,-1,-1],"loss_changes":[2.7345457E1,0E0,0E0],"parents":[2147483647,0,0],"right_children":[2,-1,-1],"split_conditions":[2.8208584E-1,-4.9655586E-2,5.129352E-2],"split_indices":[395,0,0],"split_type":[0,0,0],"sum_hessian":[1.0564295E2,5.5764E1,4.9878952E1],"tree_param":{"num_deleted":"0","num_feature":"768","num_nodes":"3","size_leaf_vector":"1"}},{"base_weights":[-5.368492E-3,-5.0018724E-2,4.9748185E-1,1.0509465E-2,5.1432308E-2],"categories":[],"categories_nodes":[],"categories_segments":[],"categories_sizes":[],"default_left":[0,0,0,0,0],"id":125,"left_children":[1,-1,3,-1,-1],"loss_changes":[3.222845E1,0E0,3.0789852E-1,0E0,0E0],"parents":[2147483647,0,0,2,2],"right_children":[2,-1,4,-1,-1],"split_conditions":[3.5047126E-1,-5.0018724E-2,-5.259064E-1,1.0509465E-2,5.1432308E-2],"split_indices":[408,0,767,0,0],"split_type":[0,0,0,0,0],"sum_hessian":[1.2752414E2,6.437828E1,6.314586E1,3.1410043E0,6.0004856E1],"tree_param":{"num_deleted":"0","num_feature":"768","num_nodes":"5","size_leaf_vector":"1"}},{"base_weights":[6.1193835E-3,-4.9812168E-2,4.8181784E-1,-1.2923631E-2,5.165806E-2],"categories":[],"categories_nodes":[],"categories_segments":[],"categories_sizes":[],"default_left":[0,0,0,0,0],"id":126,"left_children":[1,-1,3,-1,-1],"loss_changes":[2.9116796E1,0E0,1.4344006E0,0E0,0E0],"parents":[2147483647,0,0,2,2],"right_children":[2,-1,4,-1,-1],"split_conditions":[9.896278E-3,-4.9812168E-2,-3.6054552E-1,-1.2923631E-2,5.165806E-2],"split_indices":[278,0,674,0,0],"split_type":[0,0,0,0,0],"sum_hessian":[1.1939364E2,5.7833107E1,6.156053E1,3.0125241E0,5.8548008E1],"tree_param":{"num_deleted":"0","num_feature":"768","num_nodes":"5","size_leaf_vector":"1"}},{"base_weights":[4.5016212E-3,-4.8782345E-2,5.056962E-2],"categories":[],"categories_nodes":[],"categories_segments":[],"categories_sizes":[],"default_left":[0,0,0],"id":127,"left_children":[1,-1,-1],"loss_changes":[2.96707E1,0E0,0E0],"parents":[2147483647,0,0],"right_children":[2,-1,-1],"split_conditions":[2.3470259E-1,-4.8782345E-2,5.056962E-2],"split_indices":[562,0,0],"split_type":[0,0,0],"sum_hessian":[1.18238686E2,5.9559933E1,5.8678757E1],"tree_param":{"num_deleted":"0","num_feature":"768","num_nodes":"3","size_leaf_vector":"1"}},{"base_weights":[5.5417577E-3,-4.9470354E-2,5.1054973E-2],"categories":[],"categories_nodes":[],"categories_segments":[],"categories_sizes":[],"default_left":[0,0,0],"id":128,"left_children":[1,-1,-1],"loss_changes":[2.5672037E1,0E0,0E0],"parents":[2147483647,0,0],"right_children":[2,-1,-1],"split_conditions":[2.97678E-1,-4.9470354E-2,5.1054973E-2],"split_indices":[263,0,0],"split_type":[0,0,0],"sum_hessian":[9.961393E1,4.9953712E1,4.9660217E1],"tree_param":{"num_deleted":"0","num_feature":"768","num_nodes":"3","size_leaf_vector":"1"}},{"base_weights":[7.899266E-3,-4.9829047E-2,4.9433511E-1,1.0672986E-2,5.1159736E-2],"categories":[],"categories_nodes":[],"categories_segments":[],"categories_sizes":[],"default_left":[0,0,0,0,0],"id":129,"left_children":[1,-1,3,-1,-1],"loss_changes":[2.9465137E1,0E0,2.9249287E-1,0E0,0E0],"parents":[2147483647,0,0,2,2],"right_children":[2,-1,4,-1,-1],"split_conditions":[9.218472E-2,-4.9829047E-2,-2.9678673E-1,1.0672986E-2,5.1159736E-2],"split_indices":[386,0,564,0,0],"split_type":[0,0,0,0,0],"sum_hessian":[1.17666885E2,5.754993E1,6.011695E1,3.116442E0,5.700051E1],"tree_param":{"num_deleted":"0","num_feature":"768","num_nodes":"5","size_leaf_vector":"1"}},{"base_weights":[-0E0,-4.7375944E-1,4.9683207E-1,-4.961985E-2,-7.679749E-3,9.225588E-3,5.1692117E-2],"categories":[],"categories_nodes":[],"categories_segments":[],"categories_sizes":[],"default_left":[0,0,0,0,0,0,0],"id":130,"left_children":[1,3,5,-1,-1,-1,-1],"loss_changes":[2.6017504E1,4.0764713E-1,3.3068275E-1,0E0,0E0,0E0,0E0],"parents":[2147483647,0,0,1,1,2,2],"right_children":[2,4,6,-1,-1,-1,-1],"split_conditions":[-8.0260396E-2,-1.8200755E-2,2.1927762E-1,-4.961985E-2,-7.679749E-3,9.225588E-3,5.1692117E-2],"split_indices":[7,451,65,0,0,0,0],"split_type":[0,0,0,0,0,0,0],"sum_hessian":[1.0852499E2,5.547556E1,5.304943E1,5.203242E1,3.44314E0,3.0095675E0,5.0039864E1],"tree_param":{"num_deleted":"0","num_feature":"768","num_nodes":"7","size_leaf_vector":"1"}},{"base_weights":[-8.481647E-3,-4.90469E-2,4.975797E-2],"categories":[],"categories_nodes":[],"categories_segments":[],"categories_sizes":[],"default_left":[0,0,0],"id":131,"left_children":[1,-1,-1],"loss_changes":[2.5694813E1,0E0,0E0],"parents":[2147483647,0,0],"right_children":[2,-1,-1],"split_conditions":[8.948767E-1,-4.90469E-2,4.975797E-2],"split_indices":[387,0,0],"split_type":[0,0,0],"sum_hessian":[1.0334562E2,5.3048817E1,5.0296803E1],"tree_param":{"num_deleted":"0","num_feature":"768","num_nodes":"3","size_leaf_vector":"1"}},{"base_weights":[-3.0375924E-3,-4.9289666E-2,5.0542712E-2],"categories":[],"categories_nodes":[],"categories_segments":[],"categories_sizes":[],"default_left":[0,0,0],"id":132,"left_children":[1,-1,-1],"loss_changes":[2.251372E1,0E0,0E0],"parents":[2147483647,0,0],"right_children":[2,-1,-1],"split_conditions":[1.3242483E-2,-4.9289666E-2,5.0542712E-2],"split_indices":[282,0,0],"split_type":[0,0,0],"sum_hessian":[8.8393776E1,4.5136345E1,4.325743E1],"tree_param":{"num_deleted":"0","num_feature":"768","num_nodes":"3","size_leaf_vector":"1"}},{"base_weights":[3.360733E-3,-4.9655445E-2,4.9403974E-1,1.5960937E-2,5.086408E-2],"categories":[],"categories_nodes":[],"categories_segments":[],"categories_sizes":[],"default_left":[0,0,0,0,0],"id":133,"left_children":[1,-1,3,-1,-1],"loss_changes":[2.6776688E1,0E0,1.21471405E-1,0E0,0E0],"parents":[2147483647,0,0,2,2],"right_children":[2,-1,4,-1,-1],"split_conditions":[3.5047126E-1,-4.9655445E-2,1.7368835E-1,1.5960937E-2,5.086408E-2],"split_indices":[408,0,728,0,0],"split_type":[0,0,0,0,0],"sum_hessian":[1.0716082E2,5.2973953E1,5.4186867E1,3.0524392E0,5.1134426E1],"tree_param":{"num_deleted":"0","num_feature":"768","num_nodes":"5","size_leaf_vector":"1"}},{"base_weights":[-0E0,-4.6261737E-1,4.9819845E-1,-4.9530588E-2,1.003831E-3,1.1031373E-2,5.195054E-2],"categories":[],"categories_nodes":[],"categories_segments":[],"categories_sizes":[],"default_left":[0,0,0,0,0,0,0],"id":134,"left_children":[1,3,5,-1,-1,-1,-1],"loss_changes":[2.3190002E1,8.5898495E-1,2.8037262E-1,0E0,0E0,0E0,0E0],"parents":[2147483647,0,0,1,1,2,2],"right_children":[2,4,6,-1,-1,-1,-1],"split_conditions":[2.1954334E-1,6.91069E-1,-3.553431E-1,-4.9530588E-2,1.003831E-3,1.1031373E-2,5.195054E-2],"split_indices":[348,711,683,0,0,0,0],"split_type":[0,0,0,0,0,0,0],"sum_hessian":[9.861288E1,5.113365E1,4.747922E1,4.7979107E1,3.154547E0,3.0383263E0,4.4440895E1],"tree_param":{"num_deleted":"0","num_feature":"768","num_nodes":"7","size_leaf_vector":"1"}},{"base_weights":[-1.4690687E-2,-4.8941165E-2,4.9144577E-2],"categories":[],"categories_nodes":[],"categories_segments":[],"categories_sizes":[],"default_left":[0,0,0],"id":135,"left_children":[1,-1,-1],"loss_changes":[2.3727999E1,0E0,0E0],"parents":[2147483647,0,0],"right_children":[2,-1,-1],"split_conditions":[2.3470259E-1,-4.8941165E-2,4.9144577E-2],"split_indices":[562,0,0],"split_type":[0,0,0],"sum_hessian":[9.675392E1,5.004541E1,4.670851E1],"tree_param":{"num_deleted":"0","num_feature":"768","num_nodes":"3","size_leaf_vector":"1"}},{"base_weights":[-7.312656E-3,-4.914273E-2,5.0318267E-2],"categories":[],"categories_nodes":[],"categories_segments":[],"categories_sizes":[],"default_left":[0,0,0],"id":136,"left_children":[1,-1,-1],"loss_changes":[2.0644783E1,0E0,0E0],"parents":[2147483647,0,0],"right_children":[2,-1,-1],"split_conditions":[2.97678E-1,-4.914273E-2,5.0318267E-2],"split_indices":[263,0,0],"split_type":[0,0,0],"sum_hessian":[8.153955E1,4.197085E1,3.95687E1],"tree_param":{"num_deleted":"0","num_feature":"768","num_nodes":"3","size_leaf_vector":"1"}},{"base_weights":[-1.8890167E-3,-4.94842E-2,4.8724934E-1,1.4574244E-2,5.04425E-2],"categories":[],"categories_nodes":[],"categories_segments":[],"categories_sizes":[],"default_left":[0,0,0,0,0],"id":137,"left_children":[1,-1,3,-1,-1],"loss_changes":[2.3785471E1,0E0,1.5130138E-1,0E0,0E0],"parents":[2147483647,0,0,2,2],"right_children":[2,-1,4,-1,-1],"split_conditions":[-9.533346E-3,-4.94842E-2,-2.2158265E-2,1.4574244E-2,5.04425E-2],"split_indices":[403,0,255,0,0],"split_type":[0,0,0,0,0],"sum_hessian":[9.664177E1,4.822921E1,4.8412556E1,3.0512612E0,4.5361294E1],"tree_param":{"num_deleted":"0","num_feature":"768","num_nodes":"5","size_leaf_vector":"1"}},{"base_weights":[2.079132E-3,-4.9271543E-2,4.5554194E-1,-1.7995404E-2,5.0828584E-2],"categories":[],"categories_nodes":[],"categories_segments":[],"categories_sizes":[],"default_left":[0,0,0,0,0],"id":138,"left_children":[1,-1,3,-1,-1],"loss_changes":[2.116206E1,0E0,1.7776308E0,0E0,0E0],"parents":[2147483647,0,0,2,2],"right_children":[2,-1,4,-1,-1],"split_conditions":[-7.875115E-3,-4.9271543E-2,-5.015207E-1,-1.7995404E-2,5.0828584E-2],"split_indices":[332,0,78,0,0],"split_type":[0,0,0,0,0],"sum_hessian":[9.233352E1,4.4007637E1,4.8325882E1,3.3733656E0,4.495252E1],"tree_param":{"num_deleted":"0","num_feature":"768","num_nodes":"5","size_leaf_vector":"1"}},{"base_weights":[-0E0,-4.7655966E-2,4.944508E-2],"categories":[],"categories_nodes":[],"categories_segments":[],"categories_sizes":[],"default_left":[0,0,0],"id":139,"left_children":[1,-1,-1],"loss_changes":[2.1732414E1,0E0,0E0],"parents":[2147483647,0,0],"right_children":[2,-1,-1],"split_conditions":[3.5955894E-1,-4.7655966E-2,4.944508E-2],"split_indices":[562,0,0],"split_type":[0,0,0],"sum_hessian":[9.022789E1,4.5948174E1,4.4279713E1],"tree_param":{"num_deleted":"0","num_feature":"768","num_nodes":"3","size_leaf_vector":"1"}},{"base_weights":[-6.8228506E-4,-4.892842E-2,5.0096806E-2],"categories":[],"categories_nodes":[],"categories_segments":[],"categories_sizes":[],"default_left":[0,0,0],"id":140,"left_children":[1,-1,-1],"loss_changes":[1.852825E1,0E0,0E0],"parents":[2147483647,0,0],"right_children":[2,-1,-1],"split_conditions":[3.0085027E-1,-4.892842E-2,5.0096806E-2],"split_indices":[401,0,0],"split_type":[0,0,0],"sum_hessian":[7.359713E1,3.7396927E1,3.6200203E1],"tree_param":{"num_deleted":"0","num_feature":"768","num_nodes":"3","size_leaf_vector":"1"}},{"base_weights":[3.931252E-3,-4.8433807E-2,4.9545106E-2],"categories":[],"categories_nodes":[],"categories_segments":[],"categories_sizes":[],"default_left":[0,0,0],"id":141,"left_children":[1,-1,-1],"loss_changes":[2.1783035E1,0E0,0E0],"parents":[2147483647,0,0],"right_children":[2,-1,-1],"split_conditions":[2.533871E-1,-4.8433807E-2,4.9545106E-2],"split_indices":[403,0,0],"split_type":[0,0,0],"sum_hessian":[8.876039E1,4.4432697E1,4.4327698E1],"tree_param":{"num_deleted":"0","num_feature":"768","num_nodes":"3","size_leaf_vector":"1"}},{"base_weights":[6.7974394E-3,-4.4443515E-1,4.9968302E-2,-4.9176935E-2,7.838622E-3],"categories":[],"categories_nodes":[],"categories_segments":[],"categories_sizes":[],"default_left":[0,0,0,0,0],"id":142,"left_children":[1,3,-1,-1,-1],"loss_changes":[1.913005E1,1.188406E0,0E0,0E0,0E0],"parents":[2147483647,0,0,1,1],"right_children":[2,4,-1,-1,-1],"split_conditions":[4.6447265E-1,7.433981E-1,4.9968302E-2,-4.9176935E-2,7.838622E-3],"split_indices":[348,579,0,0,0],"split_type":[0,0,0,0,0],"sum_hessian":[8.3990715E1,4.3793526E1,4.019719E1,4.038765E1,3.405877E0],"tree_param":{"num_deleted":"0","num_feature":"768","num_nodes":"5","size_leaf_vector":"1"}},{"base_weights":[-2.7258121E-3,-4.8281576E-2,4.835793E-2],"categories":[],"categories_nodes":[],"categories_segments":[],"categories_sizes":[],"default_left":[0,0,0],"id":143,"left_children":[1,-1,-1],"loss_changes":[1.9332062E1,0E0,0E0],"parents":[2147483647,0,0],"right_children":[2,-1,-1],"split_conditions":[2.3470259E-1,-4.8281576E-2,4.835793E-2],"split_indices":[562,0,0],"split_type":[0,0,0],"sum_hessian":[8.080342E1,4.0768635E1,4.0034786E1],"tree_param":{"num_deleted":"0","num_feature":"768","num_nodes":"3","size_leaf_vector":"1"}},{"base_weights":[-1.0782138E-3,-4.8724663E-2,4.9602613E-2],"categories":[],"categories_nodes":[],"categories_segments":[],"categories_sizes":[],"default_left":[0,0,0],"id":144,"left_children":[1,-1,-1],"loss_changes":[1.667454E1,0E0,0E0],"parents":[2147483647,0,0],"right_children":[2,-1,-1],"split_conditions":[2.8208584E-1,-4.8724663E-2,4.9602613E-2],"split_indices":[395,0,0],"split_type":[0,0,0],"sum_hessian":[6.699889E1,3.3983753E1,3.301514E1],"tree_param":{"num_deleted":"0","num_feature":"768","num_nodes":"3","size_leaf_vector":"1"}},{"base_weights":[-3.6646505E-3,-4.917046E-2,4.86811E-2],"categories":[],"categories_nodes":[],"categories_segments":[],"categories_sizes":[],"default_left":[0,0,0],"id":145,"left_children":[1,-1,-1],"loss_changes":[1.9922579E1,0E0,0E0],"parents":[2147483647,0,0],"right_children":[2,-1,-1],"split_conditions":[4.3264812E-1,-4.917046E-2,4.86811E-2],"split_indices":[408,0,0],"split_type":[0,0,0],"sum_hessian":[8.122661E1,4.0815334E1,4.041127E1],"tree_param":{"num_deleted":"0","num_feature":"768","num_nodes":"3","size_leaf_vector":"1"}},{"base_weights":[7.2154175E-3,-4.3959272E-1,4.916043E-2,-4.8955914E-2,6.8662236E-3],"categories":[],"categories_nodes":[],"categories_segments":[],"categories_sizes":[],"default_left":[0,0,0,0,0],"id":146,"left_children":[1,3,-1,-1,-1],"loss_changes":[1.740158E1,1.135025E0,0E0,0E0,0E0],"parents":[2147483647,0,0,1,1],"right_children":[2,4,-1,-1,-1],"split_conditions":[4.6447265E-1,6.5625906E-2,4.916043E-2,-4.8955914E-2,6.8662236E-3],"split_indices":[348,278,0,0,0],"split_type":[0,0,0,0,0],"sum_hessian":[7.838069E1,4.0712685E1,3.7668007E1,3.7281124E1,3.4315615E0],"tree_param":{"num_deleted":"0","num_feature":"768","num_nodes":"5","size_leaf_vector":"1"}},{"base_weights":[-2.695274E-3,-4.7991514E-2,4.8388164E-2],"categories":[],"categories_nodes":[],"categories_segments":[],"categories_sizes":[],"default_left":[0,0,0],"id":147,"left_children":[1,-1,-1],"loss_changes":[1.7743757E1,0E0,0E0],"parents":[2147483647,0,0],"right_children":[2,-1,-1],"split_conditions":[3.1055975E-1,-4.7991514E-2,4.8388164E-2],"split_indices":[562,0,0],"split_type":[0,0,0],"sum_hessian":[7.441609E1,3.7679947E1,3.673614E1],"tree_param":{"num_deleted":"0","num_feature":"768","num_nodes":"3","size_leaf_vector":"1"}},{"base_weights":[-4.2592026E-3,-4.85772E-2,4.9498063E-2],"categories":[],"categories_nodes":[],"categories_segments":[],"categories_sizes":[],"default_left":[0,0,0],"id":148,"left_children":[1,-1,-1],"loss_changes":[1.539434E1,0E0,0E0],"parents":[2147483647,0,0],"right_children":[2,-1,-1],"split_conditions":[6.435601E-1,